{"learner":{"attributes":{"scikit_learn":"{\"_estimator_type\": \"classifier\"}"},"feature_names":["Pclass","Sex","Age","SibSp","Parch","Fare","Embarked"],"feature_types":["int","int","float","int","int","float","int"],"gradient_booster":{"model":{"gbtree_model_param":{"num_parallel_tree":"1","num_trees":"100"},"iteration_indptr":[0,1,2,3,4,5,6,7,8,9,10,11,12,13,14,15,16,17,18,19,20,21,22,23,24,25,26,27,28,29,30,31,32,33,34,35,36,37,38,39,40,41,42,43,44,45,46,47,48,49,50,51,52,53,54,55,56,57,58,59,60,61,62,63,64,65,66,67,68,69,70,71,72,73,74,75,76,77,78,79,80,81,82,83,84,85,86,87,88,89,90,91,92,93,94,95,96,97,98,99,100],"tree_info":[0,0,0,0,0,0,0,0,0,0,0,0,0,0,0,0,0,0,0,0,0,0,0,0,0,0,0,0,0,0,0,0,0,0,0,0,0,0,0,0,0,0,0,0,0,0,0,0,0,0,0,0,0,0,0,0,0,0,0,0,0,0,0,0,0,0,0,0,0,0,0,0,0,0,0,0,0,0,0,0,0,0,0,0,0,0,0,0,0,0,0,0,0,0,0,0,0,0,0,0],"trees":[{"base_weights":[-1.0380217E-2,-8.109186E-1,1.503354E0,1.078981E0,-9.136741E-1,7.193011E-1,4.4297266E-1,6.07462E-1,-2.1136038E-1,-1.9970998E-1,-1.0926614E0,8.385159E-1,-3.512095E-1,-3.0053875E-1,-8.784905E-2,-1.1224167E0,-2.2792573E-1,4.4198832E-1,1.29935E0,3.1517106E-1,-2.9737568E-1,-2.3517983E-1,-3.437702E-1,2.1478392E-1,-3.0053875E-1,5.676193E-2,9.1709435E-1,8.962951E-1,5.557032E-1,2.3251148E-1,-2.1136038E-1,-2.664106E-1,6.6141593E-3,1.4567166E-2,-1.2326073E-1,1.8497896E-1,-1.464234E-1,3.978944E-1,-3.2152622E-3,3.8765827E-1,-1.5835766E-1],"categories":[],"categories_nodes":[],"categories_segments":[],"categories_sizes":[],"default_left":[0,0,0,0,0,0,0,0,0,0,0,0,0,0,0,0,0,0,0,0,0,0,0,0,0,0,0,0,0,0,0,0,0,0,0,0,0,0,0,0,0],"id":0,"left_children":[1,3,5,7,9,-1,11,-1,-1,13,15,17,-1,-1,19,21,23,25,27,29,31,33,-1,-1,-1,35,37,39,-1,-1,-1,-1,-1,-1,-1,-1,-1,-1,-1,-1,-1],"loss_changes":[2.0547055E2,2.2521774E1,5.4561142E1,1.1847549E1,1.3291771E1,0E0,1.8893246E1,0E0,0E0,1.9230798E0,1.9133987E0,3.65061E0,0E0,0E0,1.8473905E0,1.4233322E0,3.6822348E0,2.4998217E0,6.082287E-1,4.1047983E0,2.6945884E0,1.8710893E-1,0E0,0E0,0E0,2.9746764E0,2.3595572E0,5.0936813E0,0E0,0E0,0E0,0E0,0E0,0E0,0E0,0E0,0E0,0E0,0E0,0E0,0E0],"parents":[2147483647,0,0,1,1,2,2,3,3,4,4,6,6,9,9,10,10,11,11,14,14,15,15,16,16,17,17,18,18,19,19,20,20,21,21,25,25,26,26,27,27],"right_children":[2,4,6,8,10,-1,12,-1,-1,14,16,18,-1,-1,20,22,24,26,28,30,32,34,-1,-1,-1,36,38,40,-1,-1,-1,-1,-1,-1,-1,-1,-1,-1,-1,-1,-1],"split_conditions":[1E0,7E0,3E0,3E0,2E0,7.193011E-1,2.345E1,6.07462E-1,-2.1136038E-1,2.625E1,4.71E1,1E0,-3.512095E-1,-3.0053875E-1,3.1E1,1.3E1,5.7E1,1.11333E1,1.55E1,5.3E1,5.25542E1,2.97E1,-3.437702E-1,2.1478392E-1,-3.0053875E-1,8.0292E0,1.78E1,1.35E1,5.557032E-1,2.3251148E-1,-2.1136038E-1,-2.664106E-1,6.6141593E-3,1.4567166E-2,-1.2326073E-1,1.8497896E-1,-1.464234E-1,3.978944E-1,-3.2152622E-3,3.8765827E-1,-1.5835766E-1],"split_indices":[1,2,0,3,0,0,5,0,0,5,5,6,0,0,5,2,5,5,5,2,5,5,0,0,0,5,5,5,0,0,0,0,0,0,0,0,0,0,0,0,0],"split_type":[0,0,0,0,0,0,0,0,0,0,0,0,0,0,0,0,0,0,0,0,0,0,0,0,0,0,0,0,0,0,0,0,0,0,0,0,0,0,0,0,0],"sum_hessian":[1.6755179E2,1.09897026E2,5.765476E1,5.177162E0,1.04719864E2,3.0592321E1,2.7062437E1,3.2945576E0,1.8826044E0,2.1414625E1,8.3305244E1,2.2120602E1,4.9418364E0,1.6472788E0,1.9767345E1,8.024601E1,3.059232E0,1.2942905E1,9.177696E0,6.589115E0,1.317823E1,2.3532555E0,7.789275E1,1.4119532E0,1.6472788E0,7.765743E0,5.177162E0,6.824441E0,2.3532555E0,4.706511E0,1.8826044E0,4.000534E0,9.177696E0,1.1766278E0,1.1766278E0,3.7652087E0,4.000534E0,3.2945576E0,1.8826044E0,5.4124875E0,1.4119532E0],"tree_param":{"num_deleted":"0","num_feature":"7","num_nodes":"41","size_leaf_vector":"1"}},{"base_weights":[-1.9668108E-2,-6.365597E-1,1.0296446E0,7.924969E-1,-7.2210264E-1,4.779416E-1,3.2979172E-1,4.414046E-1,-1.7806827E-1,-1.7086412E-1,-8.725569E-1,6.15111E-1,-2.9415402E-1,-2.6130864E-1,-7.744308E-2,-8.9761823E-1,-1.9165073E-1,6.885624E-1,-1.290828E-1,2.1567832E-1,-2.3414414E-1,-1.9979718E-1,-9.1766024E-1,1.719932E-1,-2.6130864E-1,4.8904783E-1,1.0513572E0,1.6746147E-1,-1.7806827E-1,-1.6507985E-1,6.768981E-2,1.21777E-2,-1.0546264E-1,-2.4769212E-1,-3.3311495E-1,2.6405236E-1,-2.7451888E-2,3.6786556E-1,9.3613185E-2],"categories":[],"categories_nodes":[],"categories_segments":[],"categories_sizes":[],"default_left":[0,0,0,0,0,0,0,0,0,0,0,0,0,0,0,0,0,0,0,0,0,0,0,0,0,0,0,0,0,0,0,0,0,0,0,0,0,0,0],"id":1,"left_children":[1,3,5,7,9,-1,11,-1,-1,13,15,17,-1,-1,19,21,23,25,-1,27,29,31,33,-1,-1,35,37,-1,-1,-1,-1,-1,-1,-1,-1,-1,-1,-1,-1],"loss_changes":[1.052539E2,1.3087841E1,2.3218536E1,6.7626987E0,7.905792E0,0E0,1.1114416E1,0E0,0E0,1.3760092E0,1.125782E0,2.1163034E0,0E0,0E0,9.9522245E-1,8.38768E-1,2.5632539E0,1.1167231E0,0E0,2.461646E0,2.1418662E0,1.3532926E-1,3.3816528E-1,0E0,0E0,3.8060122E0,5.3842974E-1,0E0,0E0,0E0,0E0,0E0,0E0,0E0,0E0,0E0,0E0,0E0,0E0],"parents":[2147483647,0,0,1,1,2,2,3,3,4,4,6,6,9,9,10,10,11,11,14,14,15,15,16,16,17,17,19,19,20,20,21,21,22,22,25,25,26,26],"right_children":[2,4,6,8,10,-1,12,-1,-1,14,16,18,-1,-1,20,22,24,26,-1,28,30,32,34,-1,-1,36,38,-1,-1,-1,-1,-1,-1,-1,-1,-1,-1,-1,-1],"split_conditions":[1E0,7E0,3E0,3E0,2E0,4.779416E-1,2.345E1,4.414046E-1,-1.7806827E-1,2.625E1,4.71E1,3.65E1,-2.9415402E-1,-2.6130864E-1,3.1E1,1.3E1,5.7E1,1.55E1,-1.290828E-1,5.3E1,1E0,2.97E1,3.25E1,1.719932E-1,-2.6130864E-1,8.05E0,2E0,1.6746147E-1,-1.7806827E-1,-1.6507985E-1,6.768981E-2,1.21777E-2,-1.0546264E-1,-2.4769212E-1,-3.3311495E-1,2.6405236E-1,-2.7451888E-2,3.6786556E-1,9.3613185E-2],"split_indices":[1,2,0,3,0,0,5,0,0,5,5,2,0,0,5,2,5,5,0,2,6,5,2,0,0,5,3,0,0,0,0,0,0,0,0,0,0,0,0],"split_type":[0,0,0,0,0,0,0,0,0,0,0,0,0,0,0,0,0,0,0,0,0,0,0,0,0,0,0,0,0,0,0,0,0,0,0,0,0,0,0],"sum_hessian":[1.605889E2,1.01380554E2,5.920834E1,5.2591023E0,9.612145E1,3.2092407E1,2.711593E1,3.488835E0,1.7702671E0,2.1067911E1,7.505354E1,2.270292E1,4.413008E0,1.500252E0,1.956766E1,7.208223E1,2.9713142E0,2.1531406E1,1.171515E0,6.6855173E0,1.2882143E1,2.3187048E0,6.976352E1,1.4710621E0,1.500252E0,1.5406689E1,6.124718E0,4.91525E0,1.7702671E0,7.5169873E0,5.3651557E0,1.1807286E0,1.1379762E0,5.079459E1,1.8968933E1,8.896745E0,6.509944E0,4.4205785E0,1.7041396E0],"tree_param":{"num_deleted":"0","num_feature":"7","num_nodes":"39","size_leaf_vector":"1"}},{"base_weights":[-1.9685917E-2,-5.105695E-1,7.939116E-1,6.387862E-1,-5.814863E-1,1.2771709E0,2.4203083E-1,3.6102638E-1,-1.5130158E-1,-1.4290097E-1,-7.12275E-1,9.336552E-2,3.9108407E-1,4.5421758E-1,-8.4217435E-1,-4.5666856E-1,9.650399E-3,-6.208551E-1,-9.4432825E-1,2.0300502E-1,7.515115E-1,-6.4832E-2,-2.9050127E-1,-2.0101334E-1,-2.3867202E-1,2.6353908E-1,-1.7732467E-1,-6.998383E-1,1.9052823E-1,-2.944968E-1,-6.0431205E-2,-2.7128079E-3,5.954266E-1,4.6252668E-1,3.6381587E-1,-2.3155057E-1,5.409881E-2,-1.9765103E-1,1.685568E-2,-2.3534168E-1,-1.2054377E-1,2.2162955E-1,-5.5581395E-2,2.5526303E-1,-2.848447E-2,2.2560264E-1,-1.00499205E-1],"categories":[],"categories_nodes":[],"categories_segments":[],"categories_sizes":[],"default_left":[0,0,0,0,0,0,0,0,0,0,0,0,0,0,0,0,0,0,0,0,0,0,0,0,0,0,0,0,0,0,0,0,0,0,0,0,0,0,0,0,0,0,0,0,0,0,0],"id":2,"left_children":[1,3,5,7,9,11,13,-1,-1,15,17,-1,-1,19,21,23,25,27,29,31,33,-1,-1,35,-1,-1,37,39,-1,-1,-1,41,43,45,-1,-1,-1,-1,-1,-1,-1,-1,-1,-1,-1,-1,-1],"loss_changes":[5.9767483E1,7.9771347E0,1.4712482E1,4.414669E0,4.9697113E0,3.5531998E-1,6.715624E0,0E0,0E0,1.0363808E0,8.531494E-1,0E0,0E0,1.6154032E0,1.7430544E-1,4.5296884E-1,2.6714237E0,5.5626526E0,2.808056E-1,1.1480193E0,8.347883E-1,0E0,0E0,1.3081616E0,0E0,0E0,1.563428E0,9.2118454E-1,0E0,0E0,0E0,1.5327622E0,9.4292676E-1,2.111445E0,0E0,0E0,0E0,0E0,0E0,0E0,0E0,0E0,0E0,0E0,0E0,0E0,0E0],"parents":[2147483647,0,0,1,1,2,2,3,3,4,4,5,5,6,6,9,9,10,10,13,13,14,14,15,15,16,16,17,17,18,18,19,19,20,20,23,23,26,26,27,27,31,31,32,32,33,33],"right_children":[2,4,6,8,10,12,14,-1,-1,16,18,-1,-1,20,22,24,26,28,30,32,34,-1,-1,36,-1,-1,38,40,-1,-1,-1,42,44,46,-1,-1,-1,-1,-1,-1,-1,-1,-1,-1,-1,-1,-1],"split_conditions":[1E0,7E0,3E0,3E0,2E0,5E0,2.345E1,3.6102638E-1,-1.5130158E-1,3E1,3.25E1,9.336552E-2,3.9108407E-1,1E0,1E1,2.7E1,3.1E1,3.2E1,6E1,1E0,1.55E1,-6.4832E-2,-2.9050127E-1,2.625E1,-2.3867202E-1,2.6353908E-1,5.25542E1,1E0,1.9052823E-1,-2.944968E-1,-6.0431205E-2,7.775E0,2.8E1,8.05E0,3.6381587E-1,-2.3155057E-1,5.409881E-2,-1.9765103E-1,1.685568E-2,-2.3534168E-1,-1.2054377E-1,2.2162955E-1,-5.5581395E-2,2.5526303E-1,-2.848447E-2,2.2560264E-1,-1.00499205E-1],"split_indices":[1,2,0,3,0,2,5,0,0,5,2,0,0,6,2,5,5,2,2,4,5,0,0,5,0,0,5,6,0,0,0,5,2,5,0,0,0,0,0,0,0,0,0,0,0,0,0],"split_type":[0,0,0,0,0,0,0,0,0,0,0,0,0,0,0,0,0,0,0,0,0,0,0,0,0,0,0,0,0,0,0,0,0,0,0,0,0,0,0,0,0,0,0,0,0,0,0],"sum_hessian":[1.4763512E2,9.2311485E1,5.5323627E1,4.899367E0,8.741212E1,2.87949E1,2.6528728E1,3.2441866E0,1.6551805E0,2.0559788E1,6.685233E1,1.1074961E0,2.7687405E1,2.2672598E1,3.8561308E0,6.073754E0,1.4486033E1,5.0595257E1,1.6257072E1,1.3200801E1,9.471796E0,1.1017517E0,2.7543793E0,4.370194E0,1.70356E0,1.9104576E0,1.2575576E1,4.80183E1,2.5769567E0,1.5173267E1,1.0838048E0,9.312191E0,3.8886106E0,7.054456E0,2.41734E0,1.3401561E0,3.0300376E0,3.5120575E0,9.063519E0,3.6126724E1,1.1891574E1,1.237844E0,8.074347E0,2.6686723E0,1.2199382E0,5.217646E0,1.8368101E0],"tree_param":{"num_deleted":"0","num_feature":"7","num_nodes":"47","size_leaf_vector":"1"}},{"base_weights":[-1.3352101E-2,-4.088503E-1,6.46321E-1,5.37523E-1,-4.67003E-1,1.0919462E0,1.941342E-1,3.112074E-1,-1.2917131E-1,-5.484262E-1,9.443599E-3,8.027214E-2,3.3512175E-1,3.6382508E-1,-7.451616E-1,-2.4599746E-1,-6.016751E-1,2.4727952E-1,-3.060189E-1,1.9766459E-1,6.970985E-1,-5.5789728E-2,-2.60359E-1,-4.1153643E-2,-2.6381108E-1,-5.1626474E-1,-8.1563187E-1,-2.891606E-1,-2.2241937E-3,3.532334E-1,-2.7367178E-1,2.6609123E-1,8.866813E-3,-1.1769644E-1,1.6081788E-1,-1.731035E-1,7.7240124E-2,-2.5556722E-1,-5.201718E-2,7.5070135E-2,-1.3864008E-1,5.3731132E-2,3.5803422E-1],"categories":[],"categories_nodes":[],"categories_segments":[],"categories_sizes":[],"default_left":[0,0,0,0,0,0,0,0,0,0,0,0,0,0,0,0,0,0,0,0,0,0,0,0,0,0,0,0,0,0,0,0,0,0,0,0,0,0,0,0,0,0,0],"id":3,"left_children":[1,3,5,7,9,11,13,-1,-1,15,17,-1,-1,19,21,23,25,-1,27,29,31,-1,-1,33,-1,35,37,-1,39,41,-1,-1,-1,-1,-1,-1,-1,-1,-1,-1,-1,-1,-1],"loss_changes":[3.56227E1,4.947653E0,1.0102068E1,3.0622141E0,3.1449566E0,2.3060226E-1,4.5143285E0,0E0,0E0,9.654064E-1,3.5413566E0,0E0,0E0,1.1480637E0,1.4061737E-1,1.5262375E0,6.4058304E-1,0E0,1.9871311E0,3.2386696E0,9.027808E-1,0E0,0E0,2.2674277E0,0E0,2.2282047E0,1.9811535E-1,0E0,1.0226262E0,2.0591202E0,0E0,0E0,0E0,0E0,0E0,0E0,0E0,0E0,0E0,0E0,0E0,0E0,0E0],"parents":[2147483647,0,0,1,1,2,2,3,3,4,4,5,5,6,6,9,9,10,10,13,13,14,14,15,15,16,16,18,18,19,19,20,20,23,23,25,25,26,26,28,28,29,29],"right_children":[2,4,6,8,10,12,14,-1,-1,16,18,-1,-1,20,22,24,26,-1,28,30,32,-1,-1,34,-1,36,38,-1,40,42,-1,-1,-1,-1,-1,-1,-1,-1,-1,-1,-1,-1,-1],"split_conditions":[1E0,7E0,3E0,3E0,5.25542E1,5E0,2.345E1,3.112074E-1,-1.2917131E-1,2E0,5.79792E1,8.027214E-2,3.3512175E-1,1.5E1,1E1,3.675E1,3.25E1,2.4727952E-1,7.525E1,1.35E1,2.0575E1,-5.5789728E-2,-2.60359E-1,3E1,-2.6381108E-1,3.1E1,6E1,-2.891606E-1,1.345E2,1.11333E1,-2.7367178E-1,2.6609123E-1,8.866813E-3,-1.1769644E-1,1.6081788E-1,-1.731035E-1,7.7240124E-2,-2.5556722E-1,-5.201718E-2,7.5070135E-2,-1.3864008E-1,5.3731132E-2,3.5803422E-1],"split_indices":[1,2,0,3,5,2,5,0,0,0,5,0,0,5,2,5,2,0,5,5,5,0,0,5,0,2,2,0,5,5,0,0,0,0,0,0,0,0,0,0,0,0,0],"split_type":[0,0,0,0,0,0,0,0,0,0,0,0,0,0,0,0,0,0,0,0,0,0,0,0,0,0,0,0,0,0,0,0,0,0,0,0,0,0,0,0,0,0,0],"sum_hessian":[1.3452516E2,8.4340294E1,5.0184875E1,4.4053044E0,7.993499E1,2.4563244E1,2.5621632E1,2.8580976E0,1.5472066E0,6.8139145E1,1.1795845E1,1.0710799E0,2.3492165E1,2.222007E1,3.4015615E0,1.104252E1,5.7096622E1,2.8420682E0,8.953776E0,1.5890584E1,6.3294854E0,1.064742E0,2.3368196E0,9.148659E0,1.8938607E0,4.3246002E1,1.3850621E1,2.1422014E0,6.8115754E0,1.4535036E1,1.3555479E0,4.671919E0,1.6575665E0,5.8872576E0,3.2614014E0,4.0333595E1,2.912406E0,1.2801457E1,1.0491633E0,4.6919374E0,2.1196377E0,1.3044749E1,1.4902867E0],"tree_param":{"num_deleted":"0","num_feature":"7","num_nodes":"43","size_leaf_vector":"1"}},{"base_weights":[-1.06938565E-2,-3.264516E-1,5.2363294E-1,3.5995042E-1,-3.8721663E-1,9.5817995E-1,1.4206158E-1,3.5040838E-1,-6.944643E-1,-1.0078293E-1,-4.9270332E-1,3.0662915E-1,3.7434748E-1,2.7700573E-1,-6.644828E-1,-6.1405424E-2,-2.4717882E-1,-1.8816076E-1,-2.2984795E-2,-4.1421065E-1,-7.049939E-1,2.2654578E-1,-7.652572E-2,7.9938656E-1,1.5365595E-1,-4.803532E-2,-2.3575859E-1,2.8728935E-1,-1.5747878E-1,-4.847171E-1,4.046958E-1,-2.2209145E-1,-4.4796757E-2,3.408525E-1,-5.1066657E-3,-1.3637035E-1,4.6047574E-1,-8.056544E-2,1.7813243E-1,-1.7446317E-1,-5.0638888E-2,2.1494025E-2,1.6343951E-1,-1.0539254E-1,9.1659866E-2,3.0065858E-1,7.438896E-2],"categories":[],"categories_nodes":[],"categories_segments":[],"categories_sizes":[],"default_left":[0,0,0,0,0,0,0,0,0,0,0,0,0,0,0,0,0,0,0,0,0,0,0,0,0,0,0,0,0,0,0,0,0,0,0,0,0,0,0,0,0,0,0,0,0,0,0],"id":4,"left_children":[1,3,5,7,9,11,13,-1,15,17,19,-1,21,23,25,-1,-1,-1,27,29,31,-1,-1,33,35,-1,-1,-1,37,39,41,-1,-1,-1,-1,43,45,-1,-1,-1,-1,-1,-1,-1,-1,-1,-1],"loss_changes":[2.1077559E1,3.4136992E0,7.5593596E0,6.692604E0,2.1439695E0,4.2063713E-1,3.0014577E0,0E0,6.1023235E-2,8.3735E-1,5.878525E-1,0E0,1.0799513E0,1.3515534E0,1.1932135E-1,0E0,0E0,0E0,2.6774993E0,2.5619254E0,1.4117575E-1,0E0,0E0,1.1557245E0,1.8201377E0,0E0,0E0,0E0,1.6369255E0,1.0697746E0,1.3795751E-1,0E0,0E0,0E0,0E0,1.1448829E0,8.8256073E-1,0E0,0E0,0E0,0E0,0E0,0E0,0E0,0E0,0E0,0E0],"parents":[2147483647,0,0,1,1,2,2,3,3,4,4,5,5,6,6,8,8,9,9,10,10,12,12,13,13,14,14,18,18,19,19,20,20,23,23,24,24,28,28,29,29,30,30,35,35,36,36],"right_children":[2,4,6,8,10,12,14,-1,16,18,20,-1,22,24,26,-1,-1,-1,28,30,32,-1,-1,34,36,-1,-1,-1,38,40,42,-1,-1,-1,-1,44,46,-1,-1,-1,-1,-1,-1,-1,-1,-1,-1],"split_conditions":[1E0,1.3E1,3E0,3E0,2E0,1.5155E2,2.345E1,3.5040838E-1,4E0,2.45E1,3.25E1,3.0662915E-1,1E0,7.7417E0,1E1,-6.1405424E-2,-2.4717882E-1,-1.8816076E-1,2.8E1,3.2E1,6E1,2.2654578E-1,-7.652572E-2,2E0,1.11333E1,-4.803532E-2,-2.3575859E-1,2.8728935E-1,1.13275E2,1E0,8.0292E0,-2.2209145E-1,-4.4796757E-2,3.408525E-1,-5.1066657E-3,1E0,1.35E1,-8.056544E-2,1.7813243E-1,-1.7446317E-1,-5.0638888E-2,2.1494025E-2,1.6343951E-1,-1.0539254E-1,9.1659866E-2,3.0065858E-1,7.438896E-2],"split_indices":[1,2,0,3,0,5,5,0,2,2,2,0,3,5,2,0,0,0,2,2,2,0,0,6,5,0,0,0,5,6,5,0,0,0,0,6,5,0,0,0,0,0,0,0,0,0,0],"split_type":[0,0,0,0,0,0,0,0,0,0,0,0,0,0,0,0,0,0,0,0,0,0,0,0,0,0,0,0,0,0,0,0,0,0,0,0,0,0,0,0,0,0,0,0,0,0,0],"sum_hessian":[1.22914696E2,7.7503456E1,4.5411236E1,5.9027147E0,7.160074E1,2.0525234E1,2.4886003E1,3.2807097E0,2.622005E0,1.9797886E1,5.1802856E1,1.7823296E1,2.7019386E0,2.1881525E1,3.0044782E0,1.0877893E0,1.5342157E0,1.6398629E0,1.8158022E1,3.997396E1,1.1828894E1,1.559009E0,1.1429298E0,3.1329541E0,1.8748571E1,1.032655E0,1.9718232E0,1.4518815E0,1.670614E1,3.7180847E1,2.7931156E0,1.0809705E1,1.0191889E0,1.940696E0,1.1922581E0,9.923634E0,8.824937E0,1.5114059E1,1.5920813E0,2.7815012E1,9.365833E0,1.2745848E0,1.5185307E0,6.8142495E0,3.1093843E0,1.4395132E0,7.3854237E0],"tree_param":{"num_deleted":"0","num_feature":"7","num_nodes":"47","size_leaf_vector":"1"}},{"base_weights":[-4.0156284E-4,-2.53467E-1,4.3635005E-1,3.204838E-1,-2.9758173E-1,8.4978485E-1,1.19264305E-1,3.240861E-1,-5.835998E-1,-6.374856E-2,-3.8971412E-1,9.146345E-1,3.2383007E-1,2.3114869E-1,-5.950937E-1,-5.2852605E-2,-2.0970993E-1,-1.88714E-1,-6.143555E-4,-2.8861067E-1,-6.293856E-1,5.1758164E-1,9.995025E-1,2.1913745E-1,-1.0608845E-1,5.034989E-2,4.663809E-1,-2.1932168E-1,-3.995783E-2,1.7502852E-1,-2.374972E-1,-4.5967972E-1,-6.542964E-2,-7.531524E-1,-1.1317373E-2,-6.614642E-2,2.5342482E-1,3.2120076E-1,9.470704E-2,2.536806E-1,-2.5994495E-1,2.2612241E-1,2.7702564E-1,-4.7725182E-2,2.2482277E-1,-2.1741723E-1,5.475651E-3,-9.141803E-3,-2.0335165E-1,2.9629907E-1,-7.6513E-2,-2.775161E-1,-7.069511E-2,1.4080125E-1,-7.758948E-2,-1.8137467E-1,4.042521E-2,1.3723785E-1,-1.04077615E-1],"categories":[],"categories_nodes":[],"categories_segments":[],"categories_sizes":[],"default_left":[0,0,0,0,0,0,0,0,0,0,0,0,0,0,0,0,0,0,0,0,0,0,0,0,0,0,0,0,0,0,0,0,0,0,0,0,0,0,0,0,0,0,0,0,0,0,0,0,0,0,0,0,0,0,0,0,0,0,0],"id":5,"left_children":[1,3,5,7,9,11,13,-1,15,17,19,21,23,25,27,-1,-1,-1,29,31,33,35,37,-1,-1,39,41,-1,-1,43,45,47,49,51,-1,-1,-1,-1,-1,53,55,57,-1,-1,-1,-1,-1,-1,-1,-1,-1,-1,-1,-1,-1,-1,-1,-1,-1],"loss_changes":[1.2707471E1,1.9384537E0,5.428051E0,4.530182E0,1.4426074E0,3.2269E-1,2.1384227E0,0E0,2.930367E-2,7.2939575E-1,9.976411E-1,8.514404E-3,1.2334218E0,9.276706E-1,1.3311672E-1,0E0,0E0,0E0,8.4852064E-1,1.3472564E0,9.6690655E-1,1.3506546E0,2.3540592E-1,0E0,0E0,9.344942E-1,8.4513664E-1,0E0,0E0,2.366969E0,1.0950814E0,1.8760166E0,3.610411E0,7.772808E-1,0E0,0E0,0E0,0E0,0E0,1.0961494E0,8.8996005E-1,1.1682429E0,0E0,0E0,0E0,0E0,0E0,0E0,0E0,0E0,0E0,0E0,0E0,0E0,0E0,0E0,0E0,0E0,0E0],"parents":[2147483647,0,0,1,1,2,2,3,3,4,4,5,5,6,6,8,8,9,9,10,10,11,11,12,12,13,13,14,14,18,18,19,19,20,20,21,21,22,22,25,25,26,26,29,29,30,30,31,31,32,32,33,33,39,39,40,40,41,41],"right_children":[2,4,6,8,10,12,14,-1,16,18,20,22,24,26,28,-1,-1,-1,30,32,34,36,38,-1,-1,40,42,-1,-1,44,46,48,50,52,-1,-1,-1,-1,-1,54,56,58,-1,-1,-1,-1,-1,-1,-1,-1,-1,-1,-1,-1,-1,-1,-1,-1,-1],"split_conditions":[1E0,1E1,3E0,3E0,2E0,1.5155E2,2.345E1,3.240861E-1,4E0,2.625E1,1.4E1,2.1075E1,2E0,1E0,4E0,-5.2852605E-2,-2.0970993E-1,-1.88714E-1,4.3E1,7.925E0,4.71E1,2.8E1,5E1,2.1913745E-1,-1.0608845E-1,1E0,1.55E1,-2.1932168E-1,-3.995783E-2,3.1E1,4.8E1,2.8E1,8.0292E0,1E0,-1.1317373E-2,-6.614642E-2,2.5342482E-1,3.2120076E-1,9.470704E-2,2.8E1,2.7E1,8.05E0,2.7702564E-1,-4.7725182E-2,2.2482277E-1,-2.1741723E-1,5.475651E-3,-9.141803E-3,-2.0335165E-1,2.9629907E-1,-7.6513E-2,-2.775161E-1,-7.069511E-2,1.4080125E-1,-7.758948E-2,-1.8137467E-1,4.042521E-2,1.3723785E-1,-1.04077615E-1],"split_indices":[1,2,0,3,0,5,5,0,2,5,5,5,4,6,3,0,0,0,2,5,5,2,2,0,0,3,5,0,0,2,2,2,5,6,0,0,0,0,0,2,2,5,0,0,0,0,0,0,0,0,0,0,0,0,0,0,0,0,0],"split_type":[0,0,0,0,0,0,0,0,0,0,0,0,0,0,0,0,0,0,0,0,0,0,0,0,0,0,0,0,0,0,0,0,0,0,0,0,0,0,0,0,0,0,0,0,0,0,0,0,0,0,0,0,0,0,0,0,0,0,0],"sum_hessian":[1.1297126E2,7.1792465E1,4.1178795E1,4.677073E0,6.711539E1,1.7144636E1,2.4034159E1,2.4354193E0,2.241654E0,1.944801E1,4.766738E1,1.4604873E1,2.539764E0,2.1364437E1,2.669722E0,1.0526189E0,1.1890349E0,1.0532913E0,1.8394718E1,3.5075333E1,1.2592048E1,3.8220701E0,1.0782803E1,1.5382391E0,1.0015248E0,1.2766322E1,8.598115E0,1.6123247E0,1.0573972E0,1.0712659E1,7.6820593E0,1.9255926E1,1.58194065E1,1.0187935E1,2.4041128E0,1.2740233E0,2.5480466E0,9.253975E0,1.528828E0,7.8226986E0,4.943623E0,6.615299E0,1.9828153E0,7.2300396E0,3.4826195E0,2.013129E0,5.66893E0,6.8732147E0,1.2382711E1,1.7715571E0,1.404785E1,7.056429E0,3.1315057E0,5.5643005E0,2.2583983E0,2.3552852E0,2.588338E0,4.8564706E0,1.758829E0],"tree_param":{"num_deleted":"0","num_feature":"7","num_nodes":"59","size_leaf_vector":"1"}},{"base_weights":[1.3340351E-3,-2.0177037E-1,3.6073104E-1,2.535754E-1,-2.3955925E-1,7.6415086E-1,8.594408E-2,2.7288067E-1,-5.495375E-1,-5.8393978E-2,-3.1657782E-1,4.3815985E-1,2.7568212E-1,1.7868666E-1,-5.326743E-1,-4.5514066E-2,-1.9986305E-1,1.2649993E-2,-1.378625E-1,-2.6864153E-1,-6.8298143E-1,7.2915876E-1,-1.3304861E-1,5.885891E-1,8.5849576E-2,-2.0443544E-1,-2.8157266E-2,1.9517091E-1,-1.1237078E-1,-2.2356766E-1,-6.225557E-1,-2.747204E-2,-2.4871224E-1,4.266446E-2,2.5539097E-1,-9.330556E-2,3.5133634E-2,2.7342677E-1,-2.6798617E-2,-1.0903483E-1,4.5221415E-1,-6.2324148E-2,1.3285765E-1,-9.7823314E-2,1.2441424E-2,-2.2549595E-1,-3.8838923E-2,9.789966E-3,-2.447304E-1,-2.4789749E-2,1.8622127E-1],"categories":[],"categories_nodes":[],"categories_segments":[],"categories_sizes":[],"default_left":[0,0,0,0,0,0,0,0,0,0,0,0,0,0,0,0,0,0,0,0,0,0,0,0,0,0,0,0,0,0,0,0,0,0,0,0,0,0,0,0,0,0,0,0,0,0,0,0,0,0,0],"id":6,"left_children":[1,3,5,7,9,11,13,-1,15,17,19,21,-1,23,25,-1,-1,27,-1,29,31,33,35,37,39,-1,-1,-1,41,43,45,-1,-1,-1,-1,-1,-1,-1,-1,47,49,-1,-1,-1,-1,-1,-1,-1,-1,-1,-1],"loss_changes":[7.8432736E0,1.2421179E0,4.2350116E0,3.5277057E0,8.7324834E-1,3.841324E-1,1.4838048E0,0E0,4.7789156E-2,5.840875E-1,6.00204E-1,1.2491386E0,0E0,7.789369E-1,1.584512E-1,0E0,0E0,1.5255123E0,0E0,5.165324E-1,3.1397843E-1,2.1920013E-1,1.7822489E-1,9.2495334E-1,1.4017915E0,0E0,0E0,0E0,9.4351876E-1,1.0465364E0,1.6261911E-1,0E0,0E0,0E0,0E0,0E0,0E0,0E0,0E0,1.3453099E0,6.616641E-1,0E0,0E0,0E0,0E0,0E0,0E0,0E0,0E0,0E0,0E0],"parents":[2147483647,0,0,1,1,2,2,3,3,4,4,5,5,6,6,8,8,9,9,10,10,11,11,13,13,14,14,17,17,19,19,20,20,21,21,22,22,23,23,24,24,28,28,29,29,30,30,39,39,40,40],"right_children":[2,4,6,8,10,12,14,-1,16,18,20,22,-1,24,26,-1,-1,28,-1,30,32,34,36,38,40,-1,-1,-1,42,44,46,-1,-1,-1,-1,-1,-1,-1,-1,48,50,-1,-1,-1,-1,-1,-1,-1,-1,-1,-1],"split_conditions":[1E0,1.3E1,3E0,3E0,2E0,2.8E1,2.345E1,2.7288067E-1,4E0,1.345E2,1E0,2.4E1,2.7568212E-1,7.7417E0,3.13875E1,-4.5514066E-2,-1.9986305E-1,2.8E1,-1.378625E-1,4.5E1,2.025E1,8E0,2.625E1,2E0,1.5E1,-2.0443544E-1,-2.8157266E-2,1.9517091E-1,8.65E1,2.9E1,5.6E1,-2.747204E-2,-2.4871224E-1,4.266446E-2,2.5539097E-1,-9.330556E-2,3.5133634E-2,2.7342677E-1,-2.6798617E-2,1.35E1,1.9E1,-6.2324148E-2,1.3285765E-1,-9.7823314E-2,1.2441424E-2,-2.2549595E-1,-3.8838923E-2,9.789966E-3,-2.447304E-1,-2.4789749E-2,1.8622127E-1],"split_indices":[1,2,0,3,0,2,5,0,2,5,4,2,0,5,5,0,0,2,0,2,5,2,5,6,5,0,0,0,5,2,2,0,0,0,0,0,0,0,0,5,2,0,0,0,0,0,0,0,0,0,0],"split_type":[0,0,0,0,0,0,0,0,0,0,0,0,0,0,0,0,0,0,0,0,0,0,0,0,0,0,0,0,0,0,0,0,0,0,0,0,0,0,0,0,0,0,0,0,0,0,0,0,0,0,0],"sum_hessian":[1.0545218E2,6.765641E1,3.7795773E1,4.746925E0,6.290948E1,1.4592042E1,2.3203732E1,2.5397346E0,2.2071905E0,1.929095E1,4.361853E1,5.9312816E0,8.66076E0,2.0797018E1,2.406714E0,1.0221739E0,1.1850165E0,1.721127E1,2.079681E0,4.010483E1,3.5137002E0,3.746254E0,2.1850276E0,2.8543265E0,1.7942692E1,1.3844115E0,1.0223024E0,2.1315126E0,1.5079757E1,3.7021538E1,3.0832956E0,1.0181353E0,2.495565E0,1.018129E0,2.728125E0,1.1345842E0,1.0504433E0,1.7002165E0,1.1541098E0,1.2170885E1,5.7718077E0,1.3403213E1,1.6765447E0,2.65301E1,1.0491435E1,2.027981E0,1.0553144E0,1.0933115E1,1.2377701E0,1.5050049E0,4.266803E0],"tree_param":{"num_deleted":"0","num_feature":"7","num_nodes":"51","size_leaf_vector":"1"}},{"base_weights":[2.208671E-3,-1.5793724E-1,2.9396933E-1,1.3599086E-2,-2.4433957E-1,6.8044466E-1,5.9905816E-2,-1.3579647E-1,3.792375E-1,-2.413843E-1,-1.4831093E-1,7.612314E-1,4.696668E-2,-1.1219299E-1,3.5918924E-1,-2.728802E-1,2.910101E-1,-1.8599091E-1,1.2771076E-1,3.6283213E-1,8.621652E-1,5.75428E-2,-5.928713E-1,1.5618686E-1,2.3431799E-1,4.171439E-1,-4.494396E-1,6.3003117E-1,-1.8710382E-1,-1.1411354E-1,-1.9335729E-1,-5.3985033E-2,2.0871292E-1,2.877182E-1,4.1940305E-2,-1.4952819E-1,1.7804852E-1,4.1494563E-2,-2.663299E-1,1.863941E-1,-4.2975925E-2,2.6022854E-1,-8.022267E-2,-2.8521882E-2,-2.2860782E-1,3.2867916E-2,2.7177238E-1,-1.0456346E-2,-1.149451E-1,-1.2388599E-1,3.925228E-2,-2.0536944E-1,6.764805E-2],"categories":[],"categories_nodes":[],"categories_segments":[],"categories_sizes":[],"default_left":[0,0,0,0,0,0,0,0,0,0,0,0,0,0,0,0,0,0,0,0,0,0,0,0,0,0,0,0,0,0,0,0,0,0,0,0,0,0,0,0,0,0,0,0,0,0,0,0,0,0,0,0,0],"id":7,"left_children":[1,3,5,7,9,11,13,15,-1,-1,17,19,-1,21,23,25,27,29,-1,31,33,35,37,39,-1,41,43,45,-1,47,-1,-1,-1,-1,-1,49,-1,-1,-1,-1,51,-1,-1,-1,-1,-1,-1,-1,-1,-1,-1,-1,-1],"loss_changes":[4.7393594E0,9.74048E-1,3.2106175E0,4.447411E0,2.2269557E0,4.5053387E-1,1.2497674E0,1.3283992E0,0E0,0E0,9.1090274E-1,1.4573812E-1,0E0,1.3126718E0,6.326004E-1,2.2188432E0,2.1522872E0,1.1387086E0,0E0,8.5364354E-1,4.5189953E-1,1.4751979E0,1.0236695E0,6.9355136E-1,0E0,1.4389687E0,1.4515224E0,5.665256E-1,0E0,6.9058955E-1,0E0,0E0,0E0,0E0,0E0,7.7855957E-1,0E0,0E0,0E0,0E0,1.183657E0,0E0,0E0,0E0,0E0,0E0,0E0,0E0,0E0,0E0,0E0,0E0,0E0],"parents":[2147483647,0,0,1,1,2,2,3,3,4,4,5,5,6,6,7,7,10,10,11,11,13,13,14,14,15,15,16,16,17,17,19,19,20,20,21,21,22,22,23,23,25,25,26,26,27,27,29,29,35,35,40,40],"right_children":[2,4,6,8,10,12,14,16,-1,-1,18,20,-1,22,24,26,28,30,-1,32,34,36,38,40,-1,42,44,46,-1,48,-1,-1,-1,-1,-1,50,-1,-1,-1,-1,52,-1,-1,-1,-1,-1,-1,-1,-1,-1,-1,-1,-1],"split_conditions":[1E0,2.8E1,3E0,2.7E1,7.7375E0,1.5155E2,1E0,1E0,3.792375E-1,-2.413843E-1,1.13275E2,2.1075E1,4.696668E-2,2.0575E1,1.55E1,1E1,2E0,1E0,1.2771076E-1,2.8E1,5E1,1E0,7E0,1.7E1,2.3431799E-1,3E0,8.1125E0,3E0,-1.8710382E-1,1E0,-1.9335729E-1,-5.3985033E-2,2.0871292E-1,2.877182E-1,4.1940305E-2,2.6E1,1.7804852E-1,4.1494563E-2,-2.663299E-1,1.863941E-1,2.3E1,2.6022854E-1,-8.022267E-2,-2.8521882E-2,-2.2860782E-1,3.2867916E-2,2.7177238E-1,-1.0456346E-2,-1.149451E-1,-1.2388599E-1,3.925228E-2,-2.0536944E-1,6.764805E-2],"split_indices":[1,2,0,2,5,5,6,6,0,0,5,5,0,5,5,2,6,4,0,2,2,4,2,2,0,3,5,0,0,3,0,0,0,0,0,2,0,0,0,0,2,0,0,0,0,0,0,0,0,0,0,0,0],"split_type":[0,0,0,0,0,0,0,0,0,0,0,0,0,0,0,0,0,0,0,0,0,0,0,0,0,0,0,0,0,0,0,0,0,0,0,0,0,0,0,0,0,0,0,0,0,0,0,0,0,0,0,0,0],"sum_hessian":[9.943881E1,6.449598E1,3.4942833E1,2.1886621E1,4.2609356E1,1.2460882E1,2.2481953E1,2.0347223E1,1.5393968E0,5.1548314E0,3.7454525E1,1.0403554E1,2.057328E0,1.4670825E1,7.8111277E0,1.5673714E1,4.6735096E0,3.578169E1,1.6728371E0,3.0317163E0,7.3718376E0,1.14928055E1,3.1780193E0,6.1986084E0,1.6125194E0,2.9157684E0,1.2757946E1,3.6367793E0,1.0367304E0,3.2012444E1,3.7692428E0,1.327134E0,1.7045825E0,6.2110405E0,1.1607969E0,8.8099785E0,2.6828268E0,1.0659598E0,2.1120594E0,1.2229326E0,4.9756756E0,1.5976931E0,1.3180754E0,6.5905986E0,6.167347E0,1.7438844E0,1.892895E0,2.5600122E1,6.412322E0,4.298431E0,4.511548E0,1.0106182E0,3.9650574E0],"tree_param":{"num_deleted":"0","num_feature":"7","num_nodes":"53","size_leaf_vector":"1"}},{"base_weights":[7.6371366E-3,-1.207616E-1,2.471477E-1,-9.098632E-2,-5.80696E-1,6.060417E-1,4.9601745E-2,2.4106678E-1,-1.2833501E-1,-5.2334417E-2,-2.0990573E-1,2.859705E-1,7.899258E-1,2.0266148E-1,-2.1309577E-1,-1.812249E-1,1.06410265E-1,5.8460444E-1,-1.7678395E-1,2.663806E-1,7.2570965E-2,3.3351436E-2,4.4848067E-1,-6.054805E-1,2.1711165E-2,-1.3660079E-1,-2.435768E-1,2.0025268E-1,-1.5711923E-1,3.533795E-2,2.1505606E-1,-1.1029885E-1,2.9670505E-2,2.3329936E-1,-2.447398E-1,5.9683233E-1,2.8889002E-2,2.572582E-3,-2.64027E-1,3.9873636E-1,-1.2133418E-1,-5.8816336E-2,1.17808186E-1,-1.9849847E-1,1.3413185E-3,-4.9150374E-2,1.1590364E-1,4.340689E-2,2.68321E-1,-3.391253E-2,1.8544637E-1],"categories":[],"categories_nodes":[],"categories_segments":[],"categories_sizes":[],"default_left":[0,0,0,0,0,0,0,0,0,0,0,0,0,0,0,0,0,0,0,0,0,0,0,0,0,0,0,0,0,0,0,0,0,0,0,0,0,0,0,0,0,0,0,0,0,0,0,0,0,0,0],"id":8,"left_children":[1,3,5,7,9,11,13,-1,15,-1,-1,17,19,21,23,25,27,29,31,-1,-1,33,35,37,39,41,-1,-1,43,-1,-1,-1,-1,45,-1,47,-1,-1,-1,49,-1,-1,-1,-1,-1,-1,-1,-1,-1,-1,-1],"loss_changes":[2.9592273E0,8.055959E-1,2.3501306E0,2.1096637E0,5.3194642E-2,4.7034264E-1,9.5762664E-1,0E0,7.4576545E-1,0E0,0E0,9.164593E-1,1.5826845E-1,6.04446E-1,8.2946205E-1,1.2435066E0,1.7889824E0,1.5066266E-1,1.9820762E-1,0E0,0E0,1.8700197E0,2.5545895E-1,5.72716E-1,1.2069908E0,1.5291437E0,0E0,0E0,7.007749E-1,0E0,0E0,0E0,0E0,5.9725446E-1,0E0,4.117117E-1,0E0,0E0,0E0,5.142035E-1,0E0,0E0,0E0,0E0,0E0,0E0,0E0,0E0,0E0,0E0,0E0],"parents":[2147483647,0,0,1,1,2,2,3,3,4,4,5,5,6,6,8,8,11,11,12,12,13,13,14,14,15,15,16,16,17,17,18,18,21,21,22,22,23,23,24,24,25,25,28,28,33,33,35,35,39,39],"right_children":[2,4,6,8,10,12,14,-1,16,-1,-1,18,20,22,24,26,28,30,32,-1,-1,34,36,38,40,42,-1,-1,44,-1,-1,-1,-1,46,-1,48,-1,-1,-1,50,-1,-1,-1,-1,-1,-1,-1,-1,-1,-1,-1],"split_conditions":[1E0,3E0,3E0,1E1,3.3E1,2.8E1,1E0,2.4106678E-1,5.25542E1,-5.2334417E-2,-2.0990573E-1,2.4E1,5E1,8.6833E0,1.5E1,3.675E1,5.79792E1,1.45E1,2.1075E1,2.663806E-1,7.2570965E-2,8.05E0,1.35E1,2.2E1,2.0575E1,2.87125E1,-2.435768E-1,2.0025268E-1,7.525E1,3.533795E-2,2.1505606E-1,-1.1029885E-1,2.9670505E-2,2.2E1,-2.447398E-1,2.45E1,2.8889002E-2,2.572582E-3,-2.64027E-1,2.7E1,-1.2133418E-1,-5.8816336E-2,1.17808186E-1,-1.9849847E-1,1.3413185E-3,-4.9150374E-2,1.1590364E-1,4.340689E-2,2.68321E-1,-3.391253E-2,1.8544637E-1],"split_indices":[1,3,0,2,5,2,3,0,5,0,0,2,2,5,5,5,5,2,5,0,0,5,5,2,5,5,0,0,5,0,0,0,0,2,0,2,0,0,0,2,0,0,0,0,0,0,0,0,0,0,0],"split_type":[0,0,0,0,0,0,0,0,0,0,0,0,0,0,0,0,0,0,0,0,0,0,0,0,0,0,0,0,0,0,0,0,0,0,0,0,0,0,0,0,0,0,0,0,0,0,0,0,0,0,0],"sum_hessian":[9.425559E1,6.168357E1,3.2572025E1,5.9058086E1,2.625484E0,1.0829515E1,2.174251E1,1.5447462E0,5.751334E1,1.1534652E0,1.472019E0,4.883826E0,5.9456897E0,1.3882474E1,7.860036E0,4.712395E1,1.0389389E1,2.808241E0,2.075585E0,4.5175147E0,1.4281749E0,8.893011E0,4.989463E0,2.3516216E0,5.5084143E0,4.514628E1,1.9776721E0,2.830283E0,7.559106E0,1.0373403E0,1.7709007E0,1.0292934E0,1.0462916E0,7.7851195E0,1.1078918E0,3.0218837E0,1.9675789E0,1.0260466E0,1.325575E0,2.9568322E0,2.5515819E0,4.1153282E1,3.992997E0,1.0829778E0,6.476128E0,2.1460133E0,5.6391063E0,1.7893304E0,1.2325535E0,1.0327722E0,1.9240601E0],"tree_param":{"num_deleted":"0","num_feature":"7","num_nodes":"51","size_leaf_vector":"1"}},{"base_weights":[8.758798E-3,-9.288325E-2,2.0205979E-1,-6.633975E-2,-5.212274E-1,5.388893E-1,3.205251E-2,2.1863511E-1,-9.788969E-2,-4.141261E-2,-1.92023E-1,6.388615E-1,6.3819676E-3,4.798389E-1,-5.2314233E-2,-2.5469136E-1,-3.1150365E-2,3.4949943E-1,2.5167194E-1,2.4050602E-1,-3.6159057E-2,1.4052422E-1,-1.4693569E-1,-1.0295144E-1,-2.3879205E-1,2.4233715E-1,-9.4015926E-2,5.6448955E-2,2.0049515E-1,-4.2940944E-1,4.927712E-2,2.4632663E-2,-1.827943E-1,-5.0894544E-2,3.4196213E-2,1.1650608E-1,-1.3330722E-1,-1.7613071E-1,1.0561742E-2,5.777267E-2,-1.3363229E-1],"categories":[],"categories_nodes":[],"categories_segments":[],"categories_sizes":[],"default_left":[0,0,0,0,0,0,0,0,0,0,0,0,0,0,0,0,0,0,0,0,0,0,0,0,0,0,0,0,0,0,0,0,0,0,0,0,0,0,0,0,0],"id":9,"left_children":[1,3,5,7,9,11,13,-1,15,-1,-1,17,-1,19,21,23,25,27,-1,-1,-1,-1,29,31,-1,-1,33,35,-1,37,39,-1,-1,-1,-1,-1,-1,-1,-1,-1,-1],"loss_changes":[1.8072692E0,6.515219E-1,1.7971259E0,1.5255553E0,6.5360844E-2,5.331099E-1,8.6076814E-1,0E0,5.847754E-1,0E0,0E0,2.173636E-1,0E0,7.9325503E-1,1.0303735E0,1.2954642E0,2.2313375E0,4.5926267E-1,0E0,0E0,0E0,0E0,9.78652E-1,1.3850746E0,0E0,0E0,6.315369E-1,8.148342E-1,0E0,5.4702544E-1,8.720718E-1,0E0,0E0,0E0,0E0,0E0,0E0,0E0,0E0,0E0,0E0],"parents":[2147483647,0,0,1,1,2,2,3,3,4,4,5,5,6,6,8,8,11,11,13,13,14,14,15,15,16,16,17,17,22,22,23,23,26,26,27,27,29,29,30,30],"right_children":[2,4,6,8,10,12,14,-1,16,-1,-1,18,-1,20,22,24,26,28,-1,-1,-1,-1,30,32,-1,-1,34,36,-1,38,40,-1,-1,-1,-1,-1,-1,-1,-1,-1,-1],"split_conditions":[1E0,3E0,3E0,1E1,5E0,1.5155E2,7.7417E0,2.1863511E-1,7.925E0,-4.141261E-2,-1.92023E-1,2.9125E1,6.3819676E-3,2E0,6E0,3.25E1,8.0292E0,1E0,2.5167194E-1,2.4050602E-1,-3.6159057E-2,1.4052422E-1,2.6E1,7.8792E0,-2.3879205E-1,2.4233715E-1,1E0,1.38625E1,2.0049515E-1,1E0,2E0,2.4632663E-2,-1.827943E-1,-5.0894544E-2,3.4196213E-2,1.1650608E-1,-1.3330722E-1,-1.7613071E-1,1.0561742E-2,5.777267E-2,-1.3363229E-1],"split_indices":[1,3,0,2,2,5,5,0,5,0,0,5,0,6,2,2,5,4,0,0,0,0,2,5,0,0,6,5,0,4,4,0,0,0,0,0,0,0,0,0,0],"split_type":[0,0,0,0,0,0,0,0,0,0,0,0,0,0,0,0,0,0,0,0,0,0,0,0,0,0,0,0,0,0,0,0,0,0,0,0,0,0,0,0,0],"sum_hessian":[9.002942E1,5.934432E1,3.06851E1,5.6968956E1,2.37536E0,9.564832E0,2.112027E1,1.3307959E0,5.563816E1,1.0740314E0,1.3013285E0,7.820203E0,1.7446288E0,2.6052203E0,1.8515049E1,1.57702675E1,3.9867893E1,4.319384E0,3.5008185E0,1.4777175E0,1.1275028E0,2.2395854E0,1.6275465E1,1.3246905E1,2.5233624E0,1.9531827E0,3.791471E1,2.863955E0,1.4554292E0,6.1841254E0,1.0091338E1,1.0314949E1,2.9319558E0,2.793984E1,9.974872E0,1.8574747E0,1.0064803E0,4.420241E0,1.7638848E0,8.29839E0,1.7929485E0],"tree_param":{"num_deleted":"0","num_feature":"7","num_nodes":"41","size_leaf_vector":"1"}},{"base_weights":[1.0373997E-2,-5.861775E-1,3.3784874E-2,-4.0542003E-2,-2.2782727E-1,-4.9838934E-2,1.9067031E-1,-2.4647638E-2,-4.69003E-1,4.742083E-1,5.4722805E-2,1.9880807E-1,-5.188173E-2,-1.8201748E-1,-3.1161679E-2,1.6121514E-1,6.865914E-1,1.878848E-1,-4.2930283E-2,2.7859214E-1,-7.8786254E-2,4.7085616E-1,-6.988672E-2,2.4251173E-1,4.2528074E-2,-1.8592358E-1,2.7095875E-1,2.0999955E-1,-8.510848E-2,-2.2550303E-1,-1.0776057E-2,1.7997323E-1,2.8511126E-2,-1.0803287E-2,-1.4470093E-1,-2.367122E-3,1.9067827E-1],"categories":[],"categories_nodes":[],"categories_segments":[],"categories_sizes":[],"default_left":[0,0,0,0,0,0,0,0,0,0,0,0,0,0,0,0,0,0,0,0,0,0,0,0,0,0,0,0,0,0,0,0,0,0,0,0,0],"id":10,"left_children":[1,3,5,-1,-1,7,9,11,13,15,17,-1,19,-1,-1,21,23,-1,25,27,29,31,-1,-1,-1,33,35,-1,-1,-1,-1,-1,-1,-1,-1,-1,-1],"loss_changes":[1.251594E0,1.6188586E-1,1.1353458E0,0E0,0E0,5.878973E-1,1.1321648E0,1.0565885E0,9.603226E-2,5.278988E-1,1.2234551E0,0E0,4.9722013E-1,0E0,0E0,7.431704E-1,2.4477196E-1,0E0,9.142069E-1,1.2043546E0,1.4212422E0,1.00024104E-1,0E0,0E0,0E0,5.965315E-1,6.588491E-1,0E0,0E0,0E0,0E0,0E0,0E0,0E0,0E0,0E0,0E0],"parents":[2147483647,0,0,1,1,2,2,5,5,6,6,7,7,8,8,9,9,10,10,12,12,15,15,16,16,18,18,19,19,20,20,21,21,25,25,26,26],"right_children":[2,4,6,-1,-1,8,10,12,14,16,18,-1,20,-1,-1,22,24,-1,26,28,30,32,-1,-1,-1,34,36,-1,-1,-1,-1,-1,-1,-1,-1,-1,-1],"split_conditions":[6.975E0,4.0125E0,1E0,-4.0542003E-2,-2.2782727E-1,3E0,3E0,1E1,2E0,2.8E1,7.7417E0,1.9880807E-1,7.25E0,-1.8201748E-1,-3.1161679E-2,2.4E1,5E1,1.878848E-1,1E0,2.8E1,7.75E0,5.79792E1,-6.988672E-2,2.4251173E-1,4.2528074E-2,1.78E1,1.45E1,2.0999955E-1,-8.510848E-2,-2.2550303E-1,-1.0776057E-2,1.7997323E-1,2.8511126E-2,-1.0803287E-2,-1.4470093E-1,-2.367122E-3,1.9067827E-1],"split_indices":[5,5,1,0,0,3,0,2,4,2,5,0,5,0,0,2,2,0,6,2,5,5,0,0,0,5,5,0,0,0,0,0,0,0,0,0,0],"split_type":[0,0,0,0,0,0,0,0,0,0,0,0,0,0,0,0,0,0,0,0,0,0,0,0,0,0,0,0,0,0,0,0,0,0,0,0,0],"sum_hessian":[8.720051E1,2.3851023E0,8.481541E1,1.1558802E0,1.229222E0,5.5770615E1,2.904479E1,5.3607655E1,2.1629589E0,8.60651E0,2.043828E1,1.1538271E0,5.2453827E1,1.0901176E0,1.0728414E0,4.1902833E0,4.4162264E0,2.1924736E0,1.8245806E1,3.2446213E0,4.9209206E1,2.237817E0,1.9524662E0,3.2140973E0,1.2021292E0,1.2815387E1,5.4304194E0,1.7146575E0,1.5299636E0,1.9568027E0,4.7252403E1,1.2219349E0,1.0158823E0,9.255733E0,3.5596547E0,3.631584E0,1.7988352E0],"tree_param":{"num_deleted":"0","num_feature":"7","num_nodes":"37","size_leaf_vector":"1"}},{"base_weights":[1.0778411E-2,-5.245876E-1,3.1071182E-2,-3.471515E-2,-2.0679784E-1,-3.876401E-2,1.6608368E-1,-1.6782997E-2,-1.2648506E-1,4.200262E-1,5.078596E-2,1.8128732E-1,-3.998303E-2,5.2656823E-1,-1.0153048E-2,1.6097775E-1,-2.8791947E-2,-2.4381522E-3,-3.06131E-1,2.4286215E-1,2.2688825E-1,1.220834E-1,-1.0787859E-1,-7.188953E-2,1.8461686E-2,-1.8982138E-3,-1.8818045E-1,-1.0648577E-2,1.7731321E-1,-2.0641747E-1,-7.650572E-3],"categories":[],"categories_nodes":[],"categories_segments":[],"categories_sizes":[],"default_left":[0,0,0,0,0,0,0,0,0,0,0,0,0,0,0,0,0,0,0,0,0,0,0,0,0,0,0,0,0,0,0],"id":11,"left_children":[1,3,5,-1,-1,7,9,11,-1,13,15,-1,17,19,-1,-1,21,23,25,27,-1,-1,29,-1,-1,-1,-1,-1,-1,-1,-1],"loss_changes":[9.500028E-1,1.3541228E-1,7.960817E-1,0E0,0E0,4.6426803E-1,8.201631E-1,8.023801E-1,0E0,4.4513893E-1,8.2357395E-1,0E0,5.28881E-1,2.8670716E-1,0E0,0E0,6.9557595E-1,7.3491937E-1,6.261285E-1,4.767168E-1,0E0,0E0,7.851881E-1,0E0,0E0,0E0,0E0,0E0,0E0,0E0,0E0],"parents":[2147483647,0,0,1,1,2,2,5,5,6,6,7,7,9,9,10,10,12,12,13,13,16,16,17,17,18,18,19,19,22,22],"right_children":[2,4,6,-1,-1,8,10,12,-1,14,16,-1,18,20,-1,-1,22,24,26,28,-1,-1,30,-1,-1,-1,-1,-1,-1,-1,-1],"split_conditions":[6.975E0,4.0125E0,1E0,-3.471515E-2,-2.0679784E-1,3E0,3E0,1E1,-1.2648506E-1,1.5155E2,7.7417E0,1.8128732E-1,1E0,2.9125E1,-1.0153048E-2,1.6097775E-1,6E0,2.5E1,3.8E1,1E0,2.2688825E-1,1.220834E-1,1.5E1,-7.188953E-2,1.8461686E-2,-1.8982138E-3,-1.8818045E-1,-1.0648577E-2,1.7731321E-1,-2.0641747E-1,-7.650572E-3],"split_indices":[5,5,1,0,0,3,0,2,0,5,5,0,4,5,0,0,2,2,2,4,0,0,2,0,0,0,0,0,0,0,0],"split_type":[0,0,0,0,0,0,0,0,0,0,0,0,0,0,0,0,0,0,0,0,0,0,0,0,0,0,0,0,0,0,0],"sum_hessian":[8.4944244E1,2.1946192E0,8.2749626E1,1.1192192E0,1.0753999E0,5.5009075E1,2.774055E1,5.300944E1,1.9996333E0,7.8368855E0,1.9903664E1,1.006916E0,5.2002525E1,6.217262E0,1.6196233E0,1.9931171E0,1.7910547E1,4.6457966E1,5.544557E0,3.7022514E0,2.5150106E0,2.1145644E0,1.5795982E1,9.285735E0,3.7172234E1,3.3948934E0,2.1496637E0,2.5564933E0,1.1457582E0,1.0497811E0,1.47462015E1],"tree_param":{"num_deleted":"0","num_feature":"7","num_nodes":"31","size_leaf_vector":"1"}},{"base_weights":[8.200616E-3,-1.4121589E-1,2.5771396E-2,-3.0939505E-2,1.5769155E-1,-1.4178067E-1,1.603002E-1,4.3992344E-1,1.6842369E-2,4.0693885E-1,-2.35719E-1,3.9184242E-1,-1.7844208E-1,5.6567824E-1,-2.3187859E-2,-5.4542575E-2,1.7085777E-1,-1.548706E-1,7.569813E-1,1.3601747E-1,-3.7720928E-1,6.3112617E-1,1.5182966E-1,-1.6843794E-1,2.9320052E-2,7.0145553E-1,-1.2010666E-2,1.3727047E-1,-3.2975525E-1,6.0102146E-2,3.4206676E-1,1.136501E-1,-2.0700206E-1,-1.5346327E-1,2.4005896E-3,2.1032555E-1,7.18039E-2,1.4078039E-1,-4.7666192E-2,9.996606E-2,-6.0906164E-2,4.859057E-2,3.013756E-1,8.000269E-2,-1.6265039E-1,-3.0722082E-1,6.3827285E-3],"categories":[],"categories_nodes":[],"categories_segments":[],"categories_sizes":[],"default_left":[0,0,0,0,0,0,0,0,0,0,0,0,0,0,0,0,0,0,0,0,0,0,0,0,0,0,0,0,0,0,0,0,0,0,0,0,0,0,0,0,0,0,0,0,0,0,0],"id":12,"left_children":[1,-1,3,5,7,9,11,13,15,17,19,21,23,25,-1,27,-1,-1,29,31,33,35,37,-1,39,41,-1,43,45,-1,-1,-1,-1,-1,-1,-1,-1,-1,-1,-1,-1,-1,-1,-1,-1,-1,-1],"loss_changes":[7.2145885E-1,0E0,6.2027794E-1,1.259876E0,9.821998E-1,2.027819E0,1.7863889E0,5.801859E-1,7.272799E-1,2.2796526E0,1.7677625E0,6.6870093E-1,7.78205E-1,5.8362484E-1,0E0,9.184375E-1,0E0,0E0,7.621839E-1,2.2133205E0,1.2409711E0,6.224394E-3,8.599455E-1,0E0,5.7295465E-1,7.4850607E-1,0E0,1.0636666E0,1.7491641E0,0E0,0E0,0E0,0E0,0E0,0E0,0E0,0E0,0E0,0E0,0E0,0E0,0E0,0E0,0E0,0E0,0E0,0E0],"parents":[2147483647,0,0,2,2,3,3,4,4,5,5,6,6,7,7,8,8,9,9,10,10,11,11,12,12,13,13,15,15,18,18,19,19,20,20,21,21,22,22,24,24,25,25,27,27,28,28],"right_children":[2,-1,4,6,8,10,12,14,16,18,20,22,24,26,-1,28,-1,-1,30,32,34,36,38,-1,40,42,-1,44,46,-1,-1,-1,-1,-1,-1,-1,-1,-1,-1,-1,-1,-1,-1,-1,-1,-1,-1],"split_conditions":[6.975E0,-1.4121589E-1,1E0,3.1E1,2.7E1,7.8E0,4.5E1,2E0,5.2E1,2.1E1,2E1,3E0,4.8E1,9.35E1,-2.3187859E-2,2.345E1,1.7085777E-1,-1.548706E-1,7.725E0,3.96E1,2.55875E1,7.12833E1,3.25E1,-1.6843794E-1,5.4E1,1.9E1,-1.2010666E-2,3E1,2.9125E1,6.0102146E-2,3.4206676E-1,1.136501E-1,-2.0700206E-1,-1.5346327E-1,2.4005896E-3,2.1032555E-1,7.18039E-2,1.4078039E-1,-4.7666192E-2,9.996606E-2,-6.0906164E-2,4.859057E-2,3.013756E-1,8.000269E-2,-1.6265039E-1,-3.0722082E-1,6.3827285E-3],"split_indices":[5,0,6,2,2,5,2,6,2,2,2,0,2,5,0,5,0,0,5,5,5,5,2,0,2,2,0,2,5,0,0,0,0,0,0,0,0,0,0,0,0,0,0,0,0,0,0],"split_type":[0,0,0,0,0,0,0,0,0,0,0,0,0,0,0,0,0,0,0,0,0,0,0,0,0,0,0,0,0,0,0,0,0,0,0,0,0,0,0,0,0,0,0,0,0,0,0],"sum_hessian":[8.329322E1,2.035038E0,8.125818E1,5.7363686E1,2.3894495E1,3.6479214E1,2.088447E1,7.2478924E0,1.6646603E1,4.845184E0,3.1634031E1,1.2312017E1,8.572453E0,5.7549496E0,1.492943E0,1.5540673E1,1.1059296E0,1.2015451E0,3.6436388E0,8.731776E0,2.2902254E1,5.3493567E0,6.962661E0,2.416016E0,6.156437E0,4.5720177E0,1.1829315E0,9.453297E0,6.087377E0,2.1066198E0,1.5370189E0,7.1665044E0,1.565272E0,1.673744E1,6.164814E0,3.8689942E0,1.4803625E0,3.1916726E0,3.7709882E0,2.4793167E0,3.6771202E0,2.1967432E0,2.3752744E0,8.451196E0,1.0021005E0,1.4003222E0,4.687055E0],"tree_param":{"num_deleted":"0","num_feature":"7","num_nodes":"47","size_leaf_vector":"1"}},{"base_weights":[4.933739E-3,-9.955E-3,1.6238162E-1,1.814213E-2,-6.534076E-1,-7.355368E-3,5.2741647E-1,-2.760789E-1,-1.3179629E-2,1.3449888E-1,-9.882889E-2,2.3414756E-1,-4.443911E-3,1.7296765E-2,1.0324249E0,-2.0084913E-1,-3.5655577E-2,-1.681956E-2,1.3214453E-1,4.6445465E-1,1.2804947E-2,6.137348E-4,-1.5629598E-1],"categories":[],"categories_nodes":[],"categories_segments":[],"categories_sizes":[],"default_left":[0,0,0,0,0,0,0,0,0,0,0,0,0,0,0,0,0,0,0,0,0,0,0],"id":13,"left_children":[1,3,-1,5,7,9,11,-1,-1,13,15,-1,-1,17,19,-1,21,-1,-1,-1,-1,-1,-1],"loss_changes":[6.71571E-1,1.4971249E0,0E0,1.0386642E0,5.23005E-1,1.0108303E0,5.348389E-1,0E0,0E0,3.1984508E0,1.6818515E0,0E0,0E0,8.955421E-1,1.7264264E0,0E0,7.998445E-1,0E0,0E0,0E0,0E0,0E0,0E0],"parents":[2147483647,0,0,1,1,3,3,4,4,5,5,6,6,9,9,10,10,13,13,14,14,16,16],"right_children":[2,4,-1,6,8,10,12,-1,-1,14,16,-1,-1,18,20,-1,22,-1,-1,-1,-1,-1,-1],"split_conditions":[2.62375E2,1.356333E2,1.6238162E-1,8.65E1,2.8E1,2.8E1,4.2E1,-2.760789E-1,-1.3179629E-2,2.7E1,7.7333E0,2.3414756E-1,-4.443911E-3,2E0,1.2525E1,-2.0084913E-1,2E0,-1.681956E-2,1.3214453E-1,4.6445465E-1,1.2804947E-2,6.137348E-4,-1.5629598E-1],"split_indices":[5,5,0,5,2,2,2,0,0,2,5,0,0,4,5,0,4,0,0,0,0,0,0],"split_type":[0,0,0,0,0,0,0,0,0,0,0,0,0,0,0,0,0,0,0,0,0,0,0],"sum_hessian":[8.242509E1,8.11537E1,1.271386E0,7.868944E1,2.4642637E0,7.587615E1,2.8132834E0,1.3592136E0,1.1050501E0,2.956199E1,4.631416E1,1.6184775E0,1.1948061E0,2.705048E1,2.5115104E0,3.6594243E0,4.2654736E1,2.3793272E1,3.2572079E0,1.2801778E0,1.2313325E0,4.0504093E1,2.1506436E0],"tree_param":{"num_deleted":"0","num_feature":"7","num_nodes":"23","size_leaf_vector":"1"}},{"base_weights":[7.150416E-3,-4.9457517E-2,1.21932514E-1,-1.8022617E-2,-1.088859E-1,-1.1512811E-1,1.7308187E-1,1.14508964E-1,-8.791355E-2,8.157452E-2,5.5427337E-1,-1.2231017E-2,2.5138378E-1,-2.8472632E-1,4.640563E-2,1.7074817E-1,-1.1048144E-1,2.2299133E-1,2.373754E-2,-1.3698474E-1,3.155808E-1,-1.5387215E-1,-2.0778428E-1,-1.713291E-1,1.0829094E-1,-4.9119454E-2,4.1533652E-1,-1.5715705E-1,1.3224123E-1,7.393124E-2,-7.739741E-2,-1.3642417E-2,1.5310761E-1,-1.3405454E-1,3.8752936E-2,1.3760862E-1,-1.0595477E-5,6.032108E-2,-8.97272E-2,1.700849E-1,-2.4374643E-2,-1.24130554E-1,1.5948369E-1],"categories":[],"categories_nodes":[],"categories_segments":[],"categories_sizes":[],"default_left":[0,0,0,0,0,0,0,0,0,0,0,0,0,0,0,0,0,0,0,0,0,0,0,0,0,0,0,0,0,0,0,0,0,0,0,0,0,0,0,0,0,0,0],"id":14,"left_children":[1,3,5,7,-1,-1,9,11,13,15,17,19,-1,21,23,25,27,-1,-1,29,31,33,-1,-1,35,37,39,-1,41,-1,-1,-1,-1,-1,-1,-1,-1,-1,-1,-1,-1,-1,-1],"loss_changes":[5.438045E-1,5.467055E-1,7.8096366E-1,4.9243763E-1,0E0,0E0,8.539185E-1,1.6986765E0,9.2951536E-1,3.9494455E-1,3.7387192E-1,7.243594E-1,0E0,6.5134084E-1,8.81978E-1,8.4798163E-1,8.288226E-1,0E0,0E0,6.5566516E-1,3.6737213E-1,1.0558833E0,0E0,0E0,7.723511E-1,6.2289625E-1,6.0250604E-1,0E0,1.4341193E0,0E0,0E0,0E0,0E0,0E0,0E0,0E0,0E0,0E0,0E0,0E0,0E0,0E0,0E0],"parents":[2147483647,0,0,1,1,2,2,3,3,6,6,7,7,8,8,9,9,10,10,11,11,13,13,14,14,15,15,16,16,19,19,20,20,21,21,24,24,25,25,26,26,28,28],"right_children":[2,4,6,8,-1,-1,10,12,14,16,18,20,-1,22,24,26,28,-1,-1,30,32,34,-1,-1,36,38,40,-1,42,-1,-1,-1,-1,-1,-1,-1,-1,-1,-1,-1,-1,-1,-1],"split_conditions":[1E0,2E0,4E0,2.8E1,-1.088859E-1,-1.1512811E-1,3.13875E1,2.7E1,3.1E1,1E0,2E0,1E0,2.5138378E-1,3.675E1,7.7958E0,8.6833E0,1.5E1,2.2299133E-1,2.373754E-2,1.7E1,3E0,8.1125E0,-2.0778428E-1,-1.713291E-1,3.25E1,2.8E1,1E0,-1.5715705E-1,2.8E1,7.393124E-2,-7.739741E-2,-1.3642417E-2,1.5310761E-1,-1.3405454E-1,3.8752936E-2,1.3760862E-1,-1.0595477E-5,6.032108E-2,-8.97272E-2,1.700849E-1,-2.4374643E-2,-1.24130554E-1,1.5948369E-1],"split_indices":[1,6,2,2,0,0,5,2,2,3,4,6,0,5,5,5,5,0,0,2,0,5,0,0,2,2,6,0,2,0,0,0,0,0,0,0,0,0,0,0,0,0,0],"split_type":[0,0,0,0,0,0,0,0,0,0,0,0,0,0,0,0,0,0,0,0,0,0,0,0,0,0,0,0,0,0,0,0,0,0,0,0,0,0,0,0,0,0,0],"sum_hessian":[8.176531E1,5.5140423E1,2.6624887E1,5.1076366E1,4.0640535E0,1.8483425E0,2.4776546E1,1.7414846E1,3.3661522E1,2.0959167E1,3.817378E0,1.5655271E1,1.7595767E0,1.3200119E1,2.0461403E1,1.4389099E1,6.570068E0,2.3271794E0,1.4901987E0,1.1761412E1,3.8938587E0,1.103669E1,2.1634293E0,1.1143098E0,1.9347092E1,7.998336E0,6.3907638E0,2.0020945E0,4.5679736E0,2.5727673E0,9.188644E0,1.6331167E0,2.260742E0,5.138874E0,5.897815E0,3.8049102E0,1.5542183E1,4.0951915E0,3.9031448E0,4.7874155E0,1.603348E0,1.9144868E0,2.6534867E0],"tree_param":{"num_deleted":"0","num_feature":"7","num_nodes":"43","size_leaf_vector":"1"}},{"base_weights":[5.3267614E-3,-7.3434263E-3,1.3663538E-1,1.8835122E-2,-6.049251E-1,2.81141E-3,1.7726526E-1,-2.2857533E-1,-5.649173E-2,3.2548076E-1,-1.8139632E-2,-1.1648237E-1,2.1856922E-1,-1.3385428E-1,-1.0449545E-3,6.671687E-2,-1.217594E-1,3.3055533E-2,-1.8226229E-2],"categories":[],"categories_nodes":[],"categories_segments":[],"categories_sizes":[],"default_left":[0,0,0,0,0,0,0,0,0,0,0,0,0,0,0,0,0,0,0],"id":15,"left_children":[1,3,-1,5,7,9,-1,-1,-1,11,13,15,-1,-1,17,-1,-1,-1,-1],"loss_changes":[4.637595E-1,1.2551355E0,0E0,7.054019E-1,7.6741576E-2,5.1995295E-1,0E0,0E0,0E0,9.202092E-1,5.2894074E-1,3.9414066E-1,0E0,0E0,4.7541186E-1,0E0,0E0,0E0,0E0],"parents":[2147483647,0,0,1,1,3,3,4,4,5,5,9,9,10,10,11,11,14,14],"right_children":[2,4,-1,6,8,10,-1,-1,-1,12,14,16,-1,-1,18,-1,-1,-1,-1],"split_conditions":[2.62375E2,1.356333E2,1.3663538E-1,1.108833E2,1E0,6E0,1.7726526E-1,-2.2857533E-1,-5.649173E-2,3E0,1.2E1,2.1E1,2.1856922E-1,-1.3385428E-1,2.8E1,6.671687E-2,-1.217594E-1,3.3055533E-2,-1.8226229E-2],"split_indices":[5,5,0,5,1,2,0,0,0,2,2,5,0,0,2,0,0,0,0],"split_type":[0,0,0,0,0,0,0,0,0,0,0,0,0,0,0,0,0,0,0],"sum_hessian":[7.972977E1,7.8503716E1,1.2260514E0,7.613683E1,2.366882E0,7.50398E1,1.0970312E0,1.1171147E0,1.2497674E0,3.6890488E0,7.135075E1,2.0988133E0,1.5902354E0,1.7761582E0,6.957459E1,1.0733746E0,1.0254388E0,2.400715E1,4.5567448E1],"tree_param":{"num_deleted":"0","num_feature":"7","num_nodes":"19","size_leaf_vector":"1"}},{"base_weights":[4.4950615E-3,-4.1211087E-2,1.1033566E-1,2.3346396E-2,-1.7709419E-1,2.0821357E-1,-7.973567E-2,-1.9271134E-1,1.23519674E-1,1.16242535E-1,-2.4927698E-1,5.6199527E-1,4.2483438E-2,-1.4052342E-1,4.3767232E-2,1.2597136E-1,-3.198261E-1,2.522455E-1,1.1331844E-3,-4.593683E-1,-6.764843E-2,1.5638196E-1,2.8590125E-1,-2.0722136E-1,1.865358E-1,-2.0644529E-1,2.732547E-1,9.897662E-2,-6.188142E-1,-5.691166E-1,1.4418295E-1,-2.3231634E-1,-2.4434282E-1,6.952057E-2,-1.8435203E-1,1.03692554E-1,-2.1615705E-2,5.031446E-1,5.2148765E-3,-8.663067E-3,-9.614952E-2,2.0358408E-2,1.3006456E-1,-2.157921E-1,1.4272682E-1,6.5387845E-2,-2.4945648E-1,-7.512766E-2,-2.2894555E-1,2.0579545E-1,2.031783E-2,-1.3341375E-1,5.218625E-2,7.6492056E-2,-1.1805678E-1,2.1479669E-1,-1.4691797E-2,-1.3493441E-1,9.670859E-2],"categories":[],"categories_nodes":[],"categories_segments":[],"categories_sizes":[],"default_left":[0,0,0,0,0,0,0,0,0,0,0,0,0,0,0,0,0,0,0,0,0,0,0,0,0,0,0,0,0,0,0,0,0,0,0,0,0,0,0,0,0,0,0,0,0,0,0,0,0,0,0,0,0,0,0,0,0,0,0],"id":16,"left_children":[1,3,5,7,9,11,13,15,17,-1,19,21,23,-1,25,-1,27,-1,29,31,33,35,-1,-1,37,39,41,43,45,47,49,51,-1,53,-1,-1,-1,55,57,-1,-1,-1,-1,-1,-1,-1,-1,-1,-1,-1,-1,-1,-1,-1,-1,-1,-1,-1,-1],"loss_changes":[3.9350376E-1,5.031186E-1,4.7279313E-1,8.775217E-1,8.4793264E-1,9.4139665E-1,4.5532072E-1,1.1377392E0,2.4184184E0,0E0,6.159183E-1,6.7094576E-1,1.4272615E0,0E0,5.036365E-1,0E0,1.4685727E0,0E0,2.0841997E0,4.30732E-1,8.128235E-1,1.8633765E-1,0E0,0E0,6.324099E-1,7.774189E-2,1.1849964E-1,2.051385E0,1.3729482E0,1.2576151E-1,7.99409E-1,6.028005E-1,0E0,8.8229674E-1,0E0,0E0,0E0,5.072013E-1,1.3057653E0,0E0,0E0,0E0,0E0,0E0,0E0,0E0,0E0,0E0,0E0,0E0,0E0,0E0,0E0,0E0,0E0,0E0,0E0,0E0,0E0],"parents":[2147483647,0,0,1,1,2,2,3,3,4,4,5,5,6,6,7,7,8,8,10,10,11,11,12,12,14,14,16,16,18,18,19,19,20,20,21,21,24,24,25,25,26,26,27,27,28,28,29,29,30,30,31,31,33,33,37,37,38,38],"right_children":[2,4,6,8,10,12,14,16,18,-1,20,22,24,-1,26,-1,28,-1,30,32,34,36,-1,-1,38,40,42,44,46,48,50,52,-1,54,-1,-1,-1,56,58,-1,-1,-1,-1,-1,-1,-1,-1,-1,-1,-1,-1,-1,-1,-1,-1,-1,-1,-1,-1],"split_conditions":[1E0,1E0,2E0,2.6E1,8.0292E0,1.4E1,7.7375E0,7.6292E0,2.8E1,1.16242535E-1,2.55875E1,7.25E0,1.51E1,-1.4052342E-1,1E0,1.2597136E-1,2E1,2.522455E-1,7.925E0,2.1E1,1.345E2,2.3E1,2.8590125E-1,-2.0722136E-1,2.7E1,7.775E0,7.775E0,7.925E0,7.8E0,7.8792E0,8.0292E0,1E0,-2.4434282E-1,3.9E1,-1.8435203E-1,1.03692554E-1,-2.1615705E-2,9.35E1,3.05E1,-8.663067E-3,-9.614952E-2,2.0358408E-2,1.3006456E-1,-2.157921E-1,1.4272682E-1,6.5387845E-2,-2.4945648E-1,-7.512766E-2,-2.2894555E-1,2.0579545E-1,2.031783E-2,-1.3341375E-1,5.218625E-2,7.6492056E-2,-1.1805678E-1,2.1479669E-1,-1.4691797E-2,-1.3493441E-1,9.670859E-2],"split_indices":[6,3,6,2,5,5,5,5,2,0,5,5,5,0,1,0,2,0,5,5,5,2,0,0,2,5,5,5,5,5,5,4,0,2,0,0,0,5,5,0,0,0,0,0,0,0,0,0,0,0,0,0,0,0,0,0,0,0,0],"split_type":[0,0,0,0,0,0,0,0,0,0,0,0,0,0,0,0,0,0,0,0,0,0,0,0,0,0,0,0,0,0,0,0,0,0,0,0,0,0,0,0,0,0,0,0,0,0,0,0,0,0,0,0,0,0,0,0,0,0,0],"sum_hessian":[7.940338E1,5.5881973E1,2.352141E1,3.8445072E1,1.7436901E1,1.5463155E1,8.058256E0,1.1885712E1,2.6559359E1,1.4815055E0,1.5955396E1,4.1701565E0,1.1292998E1,1.2696929E0,6.7885633E0,1.6466262E0,1.0239086E1,3.0155056E0,2.3543852E1,6.689004E0,9.266392E0,2.7339923E0,1.4361639E0,1.2311981E0,1.00618E1,3.295669E0,3.4928942E0,4.54363E0,5.6954556E0,4.12432E0,1.9419533E1,5.0892243E0,1.5997797E0,8.106023E0,1.1603689E0,1.2145972E0,1.5193951E0,3.0176768E0,7.044123E0,1.7790568E0,1.5166123E0,2.1549692E0,1.3379251E0,1.1458969E0,3.3977332E0,1.1493428E0,4.546113E0,2.4276578E0,1.6966622E0,1.4156346E0,1.8003899E1,3.279892E0,1.8093321E0,6.108762E0,1.9972613E0,1.9638109E0,1.053866E0,2.721501E0,4.3226223E0],"tree_param":{"num_deleted":"0","num_feature":"7","num_nodes":"59","size_leaf_vector":"1"}},{"base_weights":[-1.3392831E-3,-5.072035E-2,1.0111101E-1,-1.185195E-2,-2.475146E-1,-1.0992139E-1,1.4990377E-1,-4.904484E-1,2.8157774E-2,1.2679581E-1,-4.9801442E-1,3.9558652E-1,4.7246493E-2,-8.278656E-3,-2.175958E-1,2.0680273E-1,-3.8361255E-2,1.3559668E-1,-8.788096E-2,-2.3108914E-1,-2.0351307E-1,1.702833E-1,1.6373344E-1,9.250914E-2,-9.858856E-2,4.9993236E-2,2.26693E-1,-1.7483008E-1,1.2490172E-3,1.1052465E-1,-1.648073E-1,1.0729315E-1,-3.0080574E-2,3.397319E-2,1.3715939E-1,1.2270897E-1,-2.5834532E-2,-9.0247E-3,1.0529653E-1,5.0496727E-2,-2.8471656E-2],"categories":[],"categories_nodes":[],"categories_segments":[],"categories_sizes":[],"default_left":[0,0,0,0,0,0,0,0,0,0,0,0,0,0,0,0,0,0,0,0,0,0,0,0,0,0,0,0,0,0,0,0,0,0,0,0,0,0,0,0,0],"id":17,"left_children":[1,3,5,7,9,-1,11,13,15,17,19,21,23,-1,-1,25,27,-1,-1,-1,29,31,-1,33,-1,35,-1,-1,37,-1,-1,-1,-1,39,-1,-1,-1,-1,-1,-1,-1],"loss_changes":[4.074353E-1,4.1259557E-1,6.525217E-1,9.025798E-1,8.985431E-1,0E0,5.974928E-1,3.751601E-1,5.2817714E-1,7.287571E-1,2.8750825E-1,1.4611125E-1,3.4287858E-1,0E0,0E0,9.9798894E-1,7.068329E-1,0E0,0E0,0E0,9.976768E-1,2.5277176E-1,0E0,3.5107058E-1,0E0,5.449824E-1,0E0,0E0,3.5596544E-1,0E0,0E0,0E0,0E0,2.909027E-1,0E0,0E0,0E0,0E0,0E0,0E0,0E0],"parents":[2147483647,0,0,1,1,2,2,3,3,4,4,6,6,7,7,8,8,9,9,10,10,11,11,12,12,15,15,16,16,20,20,21,21,23,23,25,25,28,28,33,33],"right_children":[2,4,6,8,10,-1,12,14,16,18,20,22,24,-1,-1,26,28,-1,-1,-1,30,32,-1,34,-1,36,-1,-1,38,-1,-1,-1,-1,40,-1,-1,-1,-1,-1,-1,-1],"split_conditions":[1E0,1E0,4E0,1.9E1,2.1E1,-1.0992139E-1,3E0,1.7E1,2.8E1,3E0,3.45E1,2.9125E1,3.65E1,-8.278656E-3,-2.175958E-1,2.7E1,7.2292E0,1.3559668E-1,-8.788096E-2,-2.3108914E-1,3.8E1,1.99667E1,1.6373344E-1,3.1E1,-9.858856E-2,7.25E0,2.26693E-1,-1.7483008E-1,8.65E1,1.1052465E-1,-1.648073E-1,1.0729315E-1,-3.0080574E-2,8.05E0,1.3715939E-1,1.2270897E-1,-2.5834532E-2,-9.0247E-3,1.0529653E-1,5.0496727E-2,-2.8471656E-2],"split_indices":[1,4,2,2,2,0,0,2,2,3,2,5,2,0,0,2,5,0,0,0,2,5,0,2,0,5,0,0,5,0,0,0,0,5,0,0,0,0,0,0,0],"split_type":[0,0,0,0,0,0,0,0,0,0,0,0,0,0,0,0,0,0,0,0,0,0,0,0,0,0,0,0,0,0,0,0,0,0,0,0,0,0,0,0,0],"sum_hessian":[7.852136E1,5.3324074E1,2.5197289E1,4.5414566E1,7.909506E0,1.7660638E0,2.3431225E1,2.6351125E0,4.2779453E1,3.3690772E0,4.540429E0,6.064353E0,1.7366873E1,1.2632188E0,1.3718938E0,1.1034917E1,3.1744537E1,1.8550233E0,1.5140538E0,1.5197443E0,3.0206847E0,3.2791123E0,2.7852404E0,1.617319E1,1.1936828E0,9.431366E0,1.6035509E0,1.223003E0,3.0521534E1,1.1136919E0,1.9069927E0,1.7472295E0,1.5318829E0,1.4878248E1,1.2949411E0,2.0413537E0,7.3900123E0,2.8850916E1,1.6706185E0,7.134675E0,7.743573E0],"tree_param":{"num_deleted":"0","num_feature":"7","num_nodes":"41","size_leaf_vector":"1"}},{"base_weights":[-1.8866493E-3,-3.381217E-1,1.35327475E-2,-1.9880316E-1,2.2887306E-2,3.7642524E-1,-5.1001282E-3,1.9642992E-1,-1.2236032E-2,-1.3632776E-1,1.3098218E-2,-3.6885273E-2,1.3962193E-1,-1.3006106E-1,1.0853295E-1,3.040501E-1,-8.232179E-2,1.1949213E-1,-5.5605717E-2,7.386382E-2,-3.1216504E-2,3.6548737E-2,2.6034465E-1,-2.6035988E-1,5.2337382E-2],"categories":[],"categories_nodes":[],"categories_segments":[],"categories_sizes":[],"default_left":[0,0,0,0,0,0,0,0,0,0,0,0,0,0,0,0,0,0,0,0,0,0,0,0,0],"id":18,"left_children":[1,3,5,-1,-1,7,9,-1,-1,-1,11,13,15,17,19,21,23,-1,-1,-1,-1,-1,-1,-1,-1],"loss_changes":[4.083468E-1,5.15034E-1,5.119331E-1,0E0,0E0,4.5603204E-1,6.006594E-1,0E0,0E0,0E0,4.5334125E-1,7.1316326E-1,7.6505566E-1,1.0057396E0,6.312826E-1,1.1127983E0,2.050865E0,0E0,0E0,0E0,0E0,0E0,0E0,0E0,0E0],"parents":[2147483647,0,0,1,1,2,2,5,5,6,6,10,10,11,11,12,12,13,13,14,14,15,15,16,16],"right_children":[2,4,6,-1,-1,8,10,-1,-1,-1,12,14,16,18,20,22,24,-1,-1,-1,-1,-1,-1,-1,-1],"split_conditions":[7.1417E0,2.3E1,7.25E0,-1.9880316E-1,2.2887306E-2,2.45E1,7.7333E0,1.9642992E-1,-1.2236032E-2,-1.3632776E-1,1E0,3.1E1,2.345E1,7.8E0,4.5E1,1.57417E1,2.97E1,1.1949213E-1,-5.5605717E-2,7.386382E-2,-3.1216504E-2,3.6548737E-2,2.6034465E-1,-2.6035988E-1,5.2337382E-2],"split_indices":[5,2,5,0,0,2,5,0,0,0,6,2,5,5,2,5,5,0,0,0,0,0,0,0,0],"split_type":[0,0,0,0,0,0,0,0,0,0,0,0,0,0,0,0,0,0,0,0,0,0,0,0,0],"sum_hessian":[7.68798E1,2.4533682E0,7.442644E1,1.0398859E0,1.4134823E0,2.697032E0,7.17294E1,1.2762214E0,1.4208107E0,1.8590037E0,6.98704E1,5.0592274E1,1.9278126E1,3.089933E1,1.9692942E1,1.0861434E1,8.416693E0,2.3394616E0,2.855987E1,1.1856237E1,7.836704E0,9.127372E0,1.7340618E0,1.4872048E0,6.929488E0],"tree_param":{"num_deleted":"0","num_feature":"7","num_nodes":"25","size_leaf_vector":"1"}},{"base_weights":[-1.2543212E-3,-1.2117674E-2,1.1709572E-1,1.0964306E-2,-5.367588E-1,-5.2455436E-3,1.0901684E-1,-1.9857204E-1,-5.2331183E-2,2.6798166E-2,-2.35738E-1,-3.956494E-3,2.7915347E-1,-1.927222E-1,-4.314237E-2,1.095741E-2,-2.1919507E-1,1.9180624E-1,-2.4961328E-2,1.6124988E-1,-9.825737E-2],"categories":[],"categories_nodes":[],"categories_segments":[],"categories_sizes":[],"default_left":[0,0,0,0,0,0,0,0,0,0,0,0,0,0,0,0,0,0,0,0,0],"id":19,"left_children":[1,3,-1,5,7,9,-1,-1,-1,11,13,15,17,-1,19,-1,-1,-1,-1,-1,-1],"loss_changes":[3.3368182E-1,9.288151E-1,0E0,4.2454728E-1,3.1080723E-2,5.3598905E-1,0E0,0E0,0E0,4.9672374E-1,6.658449E-1,1.7301993E0,9.604676E-1,0E0,1.3453251E0,0E0,0E0,0E0,0E0,0E0,0E0],"parents":[2147483647,0,0,1,1,3,3,4,4,5,5,9,9,10,10,11,11,12,12,14,14],"right_children":[2,4,-1,6,8,10,-1,-1,-1,12,14,16,18,-1,20,-1,-1,-1,-1,-1,-1],"split_conditions":[2.62375E2,1.356333E2,1.1709572E-1,6E1,1E0,4.5E1,1.0901684E-1,-1.9857204E-1,-5.2331183E-2,5.25542E1,1.50458E1,3.96E1,6.66E1,-1.927222E-1,2.7E1,1.095741E-2,-2.1919507E-1,1.9180624E-1,-2.4961328E-2,1.6124988E-1,-9.825737E-2],"split_indices":[5,5,0,2,1,2,0,0,0,5,5,5,5,0,5,0,0,0,0,0,0],"split_type":[0,0,0,0,0,0,0,0,0,0,0,0,0,0,0,0,0,0,0,0,0],"sum_hessian":[7.6331345E1,7.521376E1,1.1175885E0,7.2981964E1,2.231795E0,7.0714554E1,2.2674108E0,1.0442542E0,1.187541E0,6.2859398E1,7.855155E0,5.690828E1,5.951117E0,1.7739346E0,6.0812206E0,5.480505E1,2.1032312E0,2.6010878E0,3.3500295E0,1.7066269E0,4.3745937E0],"tree_param":{"num_deleted":"0","num_feature":"7","num_nodes":"21","size_leaf_vector":"1"}},{"base_weights":[-4.271123E-3,-9.106099E-2,9.278494E-3,3.035432E-1,-6.084375E-3,1.5903752E-1,-1.1508864E-2,-1.1398265E-1,8.901155E-3,-3.2840405E-2,1.1520599E-1,-2.7132002E-1,7.0728087E-3,2.1638075E-1,-1.3713902E-1,2.2998128E-2,-2.3459116E-1,1.3655838E-1,-1.1776655E-2,9.218415E-2,-8.073786E-2,-2.7542984E-1,1.272617E-1],"categories":[],"categories_nodes":[],"categories_segments":[],"categories_sizes":[],"default_left":[0,0,0,0,0,0,0,0,0,0,0,0,0,0,0,0,0,0,0,0,0,0,0],"id":20,"left_children":[1,-1,3,5,7,-1,-1,-1,9,11,13,15,17,19,21,-1,-1,-1,-1,-1,-1,-1,-1],"loss_changes":[3.1495345E-1,0E0,3.3915454E-1,3.0866015E-1,4.0615064E-1,0E0,0E0,0E0,3.1483114E-1,4.8842856E-1,5.399327E-1,1.3666098E0,9.470926E-1,7.294139E-1,3.1652863E0,0E0,0E0,0E0,0E0,0E0,0E0,0E0,0E0],"parents":[2147483647,0,0,2,2,3,3,4,4,8,8,9,9,10,10,11,11,12,12,13,13,14,14],"right_children":[2,-1,4,6,8,-1,-1,-1,10,12,14,16,18,20,22,-1,-1,-1,-1,-1,-1,-1,-1],"split_conditions":[7.1417E0,-9.106099E-2,7.25E0,2.45E1,7.7333E0,1.5903752E-1,-1.1508864E-2,-1.1398265E-1,1E0,7.925E0,3E1,7.8792E0,8.0292E0,7.965E1,3.05E1,2.2998128E-2,-2.3459116E-1,1.3655838E-1,-1.1776655E-2,9.218415E-2,-8.073786E-2,-2.7542984E-1,1.272617E-1],"split_indices":[5,0,5,2,5,0,0,0,6,5,2,5,5,5,5,0,0,0,0,0,0,0,0],"split_type":[0,0,0,0,0,0,0,0,0,0,0,0,0,0,0,0,0,0,0,0,0,0,0],"sum_hessian":[7.5977135E1,2.3639336E0,7.36132E1,2.7217524E0,7.089145E1,1.3058585E0,1.4158939E0,1.793497E0,6.909795E1,5.011207E1,1.8985884E1,6.353349E0,4.3758717E1,1.36539955E1,5.331888E0,4.283949E0,2.0694003E0,3.2731347E0,4.0485584E1,1.1809954E1,1.8440418E0,1.963989E0,3.3678994E0],"tree_param":{"num_deleted":"0","num_feature":"7","num_nodes":"23","size_leaf_vector":"1"}},{"base_weights":[-7.932181E-3,-4.7401033E-2,7.424144E-2,-1.5125379E-2,-2.1699725E-1,3.0361667E-1,-1.5236962E-2,-4.535999E-1,1.9776694E-2,1.292231E-1,-4.5406625E-1,5.1801477E-2,5.180262E-1,9.46756E-2,-7.269848E-2,-2.0103568E-2,-1.9280745E-1,3.573983E-1,-8.16025E-3,-4.2833168E-2,1.12456694E-1,-1.8010202E-1,-3.5730336E-2,1.163389E-1,-8.393185E-2,1.989931E-1,1.8383652E-2,-2.6915523E-1,5.741972E-2,-5.3602777E-2,2.0767717E-1,-4.1531146E-1,3.377178E-2,-4.350488E-1,-8.577072E-2,2.375743E-1,-2.574439E-1,-5.7717278E-3,-1.9411545E-1,1.0833454E-1,-1.0485712E-2,-1.5861116E-1,-3.2119535E-2,3.666006E-2,-9.730854E-2,-4.4649182E-4,1.6982517E-1,6.1737485E-2,-1.3815336E-1],"categories":[],"categories_nodes":[],"categories_segments":[],"categories_sizes":[],"default_left":[0,0,0,0,0,0,0,0,0,0,0,0,0,0,0,0,0,0,0,0,0,0,0,0,0,0,0,0,0,0,0,0,0,0,0,0,0,0,0,0,0,0,0,0,0,0,0,0,0],"id":21,"left_children":[1,3,5,7,9,11,13,15,17,19,21,23,25,-1,27,-1,-1,29,31,-1,-1,-1,-1,-1,-1,-1,-1,33,35,-1,-1,37,39,41,43,45,47,-1,-1,-1,-1,-1,-1,-1,-1,-1,-1,-1,-1],"loss_changes":[2.5102895E-1,2.8225017E-1,5.208297E-1,6.960773E-1,7.370533E-1,3.5681927E-1,3.8498408E-1,2.019738E-1,4.042156E-1,3.29966E-1,1.7972279E-1,5.963427E-1,2.0665991E-1,0E0,4.5102963E-1,0E0,0E0,7.113676E-1,7.0158064E-1,0E0,0E0,0E0,0E0,0E0,0E0,0E0,0E0,1.7457497E-1,6.893591E-1,0E0,0E0,3.3959758E-1,8.54813E-1,4.8180223E-2,2.6558873E-1,5.9489465E-1,5.190506E-1,0E0,0E0,0E0,0E0,0E0,0E0,0E0,0E0,0E0,0E0,0E0,0E0],"parents":[2147483647,0,0,1,1,2,2,3,3,4,4,5,5,6,6,7,7,8,8,9,9,10,10,11,11,12,12,14,14,17,17,18,18,27,27,28,28,31,31,32,32,33,33,34,34,35,35,36,36],"right_children":[2,4,6,8,10,12,14,16,18,20,22,24,26,-1,28,-1,-1,30,32,-1,-1,-1,-1,-1,-1,-1,-1,34,36,-1,-1,38,40,42,44,46,48,-1,-1,-1,-1,-1,-1,-1,-1,-1,-1,-1,-1],"split_conditions":[1E0,1E0,3E0,1.9E1,2.1E1,2.8E1,7.7417E0,1.7E1,2.1E1,3.13875E1,7.79583E1,2.4E1,4.8E1,9.46756E-2,8.6833E0,-2.0103568E-2,-1.9280745E-1,7.925E0,2.4E1,-4.2833168E-2,1.12456694E-1,-1.8010202E-1,-3.5730336E-2,1.163389E-1,-8.393185E-2,1.989931E-1,1.8383652E-2,2.6E1,1.78E1,-5.3602777E-2,2.0767717E-1,7.8E0,2.8E1,7.8792E0,7.8875E0,1.5E1,6E0,-5.7717278E-3,-1.9411545E-1,1.0833454E-1,-1.0485712E-2,-1.5861116E-1,-3.2119535E-2,3.666006E-2,-9.730854E-2,-4.4649182E-4,1.6982517E-1,6.1737485E-2,-1.3815336E-1],"split_indices":[1,4,0,2,2,2,5,2,2,5,5,2,2,0,5,0,0,5,2,0,0,0,0,0,0,0,0,2,5,0,0,5,2,5,5,5,2,0,0,0,0,0,0,0,0,0,0,0,0],"split_type":[0,0,0,0,0,0,0,0,0,0,0,0,0,0,0,0,0,0,0,0,0,0,0,0,0,0,0,0,0,0,0,0,0,0,0,0,0,0,0,0,0,0,0,0,0,0,0,0,0],"sum_hessian":[7.531423E1,5.116318E1,2.4151054E1,4.389816E1,7.265022E0,6.1058087E0,1.8045244E1,2.3521209E0,4.154604E1,3.1376493E0,4.1273723E0,3.3789594E0,2.7268493E0,2.0057068E0,1.6039537E1,1.217465E0,1.1346558E0,2.2738028E0,3.9272236E1,1.6876134E0,1.4500359E0,2.321406E0,1.8059667E0,1.5940732E0,1.7848862E0,1.7256876E0,1.0011617E0,5.9649367E0,1.0074601E1,1.0535667E0,1.2202361E0,2.8355215E0,3.6436714E1,2.4112957E0,3.553641E0,6.5642333E0,3.510368E0,1.4464238E0,1.3890976E0,5.584127E0,3.0852589E1,1.3996469E0,1.0116487E0,2.1592925E0,1.3943487E0,4.3755403E0,2.1886933E0,1.0657564E0,2.4446115E0],"tree_param":{"num_deleted":"0","num_feature":"7","num_nodes":"49","size_leaf_vector":"1"}},{"base_weights":[-7.824412E-3,-2.1651348E-2,2.1675722E-1,-3.8260506E-3,-3.0058363E-1,-3.9075434E-2,1.678695E-1,-2.2206873E-2,1.6796403E-1,1.00388955E-2,-1.3407208E-1,-2.2416387E-3,-1.9155821E-1,4.4294056E-2,-1.078936E-1,2.6457408E-3,1.6493708E-1,2.2156497E-2,-8.13847E-2],"categories":[],"categories_nodes":[],"categories_segments":[],"categories_sizes":[],"default_left":[0,0,0,0,0,0,0,0,0,0,0,0,0,0,0,0,0,0,0],"id":22,"left_children":[1,3,5,7,9,-1,-1,11,-1,-1,-1,13,-1,15,17,-1,-1,-1,-1],"loss_changes":[2.3845118E-1,3.5594773E-1,6.030389E-1,7.2239363E-1,2.2519094E-1,0E0,0E0,8.269158E-1,0E0,0E0,0E0,3.3030266E-1,0E0,8.3210933E-1,6.2987804E-1,0E0,0E0,0E0,0E0],"parents":[2147483647,0,0,1,1,2,2,3,3,4,4,7,7,11,11,13,13,14,14],"right_children":[2,4,6,8,10,-1,-1,12,-1,-1,-1,14,-1,16,18,-1,-1,-1,-1],"split_conditions":[5.6E1,5E1,3E1,4.8E1,2.7E1,-3.9075434E-2,1.678695E-1,4.55E1,1.6796403E-1,1.00388955E-2,-1.3407208E-1,1E0,-1.9155821E-1,4.2E1,2.6E1,2.6457408E-3,1.6493708E-1,2.2156497E-2,-8.13847E-2],"split_indices":[2,2,5,2,5,0,0,2,0,0,0,3,0,2,2,0,0,0,0],"split_type":[0,0,0,0,0,0,0,0,0,0,0,0,0,0,0,0,0,0,0],"sum_hessian":[7.427772E1,7.082103E1,3.4566836E0,6.751986E1,3.3011715E0,2.025951E0,1.4307327E0,6.631802E1,1.2018331E0,1.2404995E0,2.060672E0,6.520926E1,1.1087675E0,4.567285E1,1.9536407E1,4.3628517E1,2.0443332E0,9.507992E0,1.0028416E1],"tree_param":{"num_deleted":"0","num_feature":"7","num_nodes":"19","size_leaf_vector":"1"}},{"base_weights":[-4.8002987E-3,-8.097446E-2,7.0209624E-3,9.945669E-2,-2.9220632E-3,-5.2302428E-2,7.423431E-2,-1.987975E-2,-1.5508759E-1,2.4267081E-2,1.5875751E-1,-1.0760987E-1,2.0931719E-1,1.50077E-1,-3.2614276E-2,-1.5419624E-2,-2.4664773E-1,1.311837E-1,-4.1724153E-2,-1.9443452E-1,7.5400076E-3],"categories":[],"categories_nodes":[],"categories_segments":[],"categories_sizes":[],"default_left":[0,0,0,0,0,0,0,0,0,0,0,0,0,0,0,0,0,0,0,0,0],"id":23,"left_children":[1,-1,3,-1,5,7,9,11,-1,13,-1,15,17,-1,19,-1,-1,-1,-1,-1,-1],"loss_changes":[2.37411E-1,0E0,2.362334E-1,0E0,2.7720997E-1,6.575724E-1,6.3298446E-1,8.7666047E-1,0E0,7.377525E-1,0E0,1.2181512E0,1.0216749E0,0E0,8.956554E-1,0E0,0E0,0E0,0E0,0E0,0E0],"parents":[2147483647,0,0,2,2,4,4,5,5,6,6,7,7,9,9,11,11,12,12,14,14],"right_children":[2,-1,4,-1,6,8,10,12,-1,14,-1,16,18,-1,20,-1,-1,-1,-1,-1,-1],"split_conditions":[7.1417E0,-8.097446E-2,7.2292E0,9.945669E-2,2.9E1,1.345E2,1.13275E2,2.2025E1,-1.5508759E-1,3E1,1.5875751E-1,1.95E1,3.96E1,1.50077E-1,7.7958E0,-1.5419624E-2,-2.4664773E-1,1.311837E-1,-4.1724153E-2,-1.9443452E-1,7.5400076E-3],"split_indices":[5,0,5,0,2,5,5,5,0,2,0,5,5,0,5,0,0,0,0,0,0],"split_type":[0,0,0,0,0,0,0,0,0,0,0,0,0,0,0,0,0,0,0,0,0],"sum_hessian":[7.414895E1,2.2331548E0,7.1915794E1,1.1765226E0,7.073927E1,4.333002E1,2.7409252E1,4.1478527E1,1.8514961E0,2.5645939E1,1.7633126E0,3.0380299E1,1.1098228E1,1.9055283E0,2.374041E1,2.9158436E1,1.2218621E0,6.554444E0,4.543784E0,1.1594312E0,2.258098E1],"tree_param":{"num_deleted":"0","num_feature":"7","num_nodes":"21","size_leaf_vector":"1"}},{"base_weights":[-6.548006E-3,-4.388986E-2,7.205976E-2,2.9993307E-2,-1.1243484E-1,-9.6882574E-2,1.1602041E-1,-4.012106E-2,2.9547957E-1,-4.348634E-1,5.568458E-3,-8.068862E-2,2.245151E-1,4.084019E-2,-3.8250822E-1,-2.312692E-2,4.8511627E-1,-2.1638112E-1,-9.719129E-2,1.9775403E-1,-1.4471722E-1,8.071226E-2,-2.1586774E-1,3.8250378E-1,4.9429946E-2,-8.468769E-2,4.816524E-1,-1.9347559E-1,-5.430513E-3,-3.5098087E-2,2.315021E-1,-3.5717502E-1,1.0582277E-1,3.227623E-1,-1.0118622E-1,-2.1441264E-1,2.87837E-2,-2.809935E-2,-1.0836301E-1,5.0846314E-1,-6.104502E-3,-1.6908005E-1,2.4314436E-1,2.2514125E-2,-9.3127325E-2,2.7195376E-1,-2.3411483E-2,2.8593048E-2,-1.8803701E-1,2.085569E-1,2.3538657E-2,1.1723266E-1,-4.3280456E-2,-1.0116615E-1,6.809842E-2,2.2939368E-1,8.9415856E-2,-1.4701766E-2,1.4473298E-1],"categories":[],"categories_nodes":[],"categories_segments":[],"categories_sizes":[],"default_left":[0,0,0,0,0,0,0,0,0,0,0,0,0,0,0,0,0,0,0,0,0,0,0,0,0,0,0,0,0,0,0,0,0,0,0,0,0,0,0,0,0,0,0,0,0,0,0,0,0,0,0,0,0,0,0,0,0,0,0],"id":24,"left_children":[1,3,5,7,9,-1,11,13,15,17,19,21,23,25,27,-1,29,-1,31,33,35,-1,37,39,41,43,45,-1,-1,-1,-1,47,-1,49,-1,-1,51,53,-1,55,-1,-1,57,-1,-1,-1,-1,-1,-1,-1,-1,-1,-1,-1,-1,-1,-1,-1,-1],"loss_changes":[2.2313765E-1,2.6381338E-1,4.6312517E-1,4.8724836E-1,1.0254328E0,0E0,5.04579E-1,6.000666E-1,4.2282373E-1,6.2782335E-1,6.2565625E-1,4.759243E-1,3.9478105E-1,1.0343304E0,3.8311368E-1,0E0,7.376894E-1,0E0,6.485915E-1,7.4383986E-1,1.2248534E0,0E0,1.7895702E-1,4.0173292E-1,1.1158292E0,5.5789196E-1,1.0526438E0,0E0,0E0,0E0,0E0,4.6579042E-1,0E0,6.92123E-1,0E0,0E0,7.0141804E-1,4.0046436E-1,0E0,9.090054E-2,0E0,0E0,5.103479E-1,0E0,0E0,0E0,0E0,0E0,0E0,0E0,0E0,0E0,0E0,0E0,0E0,0E0,0E0,0E0,0E0],"parents":[2147483647,0,0,1,1,2,2,3,3,4,4,6,6,7,7,8,8,9,9,10,10,11,11,12,12,13,13,14,14,16,16,18,18,19,19,20,20,22,22,23,23,24,24,25,25,26,26,31,31,33,33,36,36,37,37,39,39,42,42],"right_children":[2,4,6,8,10,-1,12,14,16,18,20,22,24,26,28,-1,30,-1,32,34,36,-1,38,40,42,44,46,-1,-1,-1,-1,48,-1,50,-1,-1,52,54,-1,56,-1,-1,58,-1,-1,-1,-1,-1,-1,-1,-1,-1,-1,-1,-1,-1,-1,-1,-1],"split_conditions":[1E0,1.4E1,4E0,1.04625E1,2.62875E1,-9.6882574E-2,8.6833E0,3.25E1,2.8E1,1E0,3.70042E1,7.7417E0,1E0,2.9E1,3.9E1,-2.312692E-2,1.265E1,-2.1638112E-1,2.2025E1,5.7E1,5.25542E1,8.071226E-2,2.8E1,1E0,1.5E1,2.8E1,3.2E1,-1.9347559E-1,-5.430513E-3,-3.5098087E-2,2.315021E-1,2.7E1,1.0582277E-1,2.7E1,-1.0118622E-1,-2.1441264E-1,5.79792E1,2.2E1,-1.0836301E-1,2.2E1,-6.104502E-3,-1.6908005E-1,2.8E1,2.2514125E-2,-9.3127325E-2,2.7195376E-1,-2.3411483E-2,2.8593048E-2,-1.8803701E-1,2.085569E-1,2.3538657E-2,1.1723266E-1,-4.3280456E-2,-1.0116615E-1,6.809842E-2,2.2939368E-1,8.9415856E-2,-1.4701766E-2,1.4473298E-1],"split_indices":[1,5,2,5,5,0,5,2,2,3,5,5,3,2,2,0,5,0,5,2,5,0,2,6,5,2,2,0,0,0,0,2,0,5,0,0,5,2,0,2,0,0,2,0,0,0,0,0,0,0,0,0,0,0,0,0,0,0,0],"split_type":[0,0,0,0,0,0,0,0,0,0,0,0,0,0,0,0,0,0,0,0,0,0,0,0,0,0,0,0,0,0,0,0,0,0,0,0,0,0,0,0,0,0,0,0,0,0,0,0,0,0,0,0,0,0,0,0,0,0,0],"sum_hessian":[7.39397E1,5.0426662E1,2.3513035E1,2.4539013E1,2.5887648E1,1.7192072E0,2.1793827E1,2.0083801E1,4.455213E0,6.2165527E0,1.9671095E1,7.838438E0,1.395539E1,1.6955261E1,3.1285405E0,1.7029681E0,2.7522447E0,2.7489436E0,3.4676094E0,8.493605E0,1.1177489E1,1.9090844E0,5.929353E0,6.7131143E0,7.242275E0,1.3825986E1,3.129274E0,1.371291E0,1.7572495E0,1.0782886E0,1.6739563E0,2.3283741E0,1.1392353E0,7.2065926E0,1.287012E0,1.8804452E0,9.297045E0,3.107758E0,2.8215954E0,4.9143815E0,1.7987331E0,1.2805136E0,5.9617615E0,8.487586E0,5.3384004E0,1.4266443E0,1.7026297E0,1.1107453E0,1.2176287E0,2.1235993E0,5.0829935E0,2.6000633E0,6.696981E0,1.259527E0,1.8482312E0,1.0283085E0,3.8860729E0,3.0425038E0,2.9192579E0],"tree_param":{"num_deleted":"0","num_feature":"7","num_nodes":"59","size_leaf_vector":"1"}},{"base_weights":[-7.261568E-3,1.9708933E-1,-2.0307008E-2,-1.7923947E-1,1.7733711E-1,-1.2754445E-1,-5.2293926E-3,3.7522797E-2,-1.17980905E-1,-1.8453103E-2,1.9349279E-1,9.052304E-3,-2.3023006E-1,-2.8383194E-2,1.3818969E-1,-3.5372723E-3,9.540275E-2,-1.4702353E-1,-4.1286834E-2,4.1586896E-3,-1.4492002E-1,1.3085099E-1,-8.490352E-2],"categories":[],"categories_nodes":[],"categories_segments":[],"categories_sizes":[],"default_left":[0,0,0,0,0,0,0,0,0,0,0,0,0,0,0,0,0,0,0,0,0,0,0],"id":25,"left_children":[1,3,5,7,-1,-1,9,-1,-1,11,13,15,17,-1,-1,19,-1,-1,21,-1,-1,-1,-1],"loss_changes":[2.0045315E-1,7.7553654E-1,4.2613518E-1,2.4959922E-1,0E0,0E0,1.8402182E-1,0E0,0E0,3.824427E-1,3.8002425E-1,2.296555E-1,3.5013855E-1,0E0,0E0,4.859727E-1,0E0,0E0,7.5357324E-1,0E0,0E0,0E0,0E0],"parents":[2147483647,0,0,1,1,2,2,3,3,6,6,9,9,10,10,11,11,12,12,15,15,18,18],"right_children":[2,4,6,8,-1,-1,10,-1,-1,12,14,16,18,-1,-1,20,-1,-1,22,-1,-1,-1,-1],"split_conditions":[6E0,3E0,1.2E1,2.16792E1,1.7733711E-1,-1.2754445E-1,5.6E1,3.7522797E-2,-1.17980905E-1,4.5E1,3E1,2.27525E2,4.8E1,-2.8383194E-2,1.3818969E-1,1.356333E2,9.540275E-2,-1.4702353E-1,5E1,4.1586896E-3,-1.4492002E-1,1.3085099E-1,-8.490352E-2],"split_indices":[2,2,2,5,0,0,2,0,0,2,5,5,2,0,0,5,0,0,2,0,0,0,0],"split_type":[0,0,0,0,0,0,0,0,0,0,0,0,0,0,0,0,0,0,0,0,0,0,0],"sum_hessian":[7.26917E1,3.515475E0,6.917623E1,2.0769591E0,1.4385158E0,1.5072967E0,6.766894E1,1.0292094E0,1.0477499E0,6.4297485E1,3.3714516E0,5.7753735E1,6.543749E0,1.9328059E0,1.4386457E0,5.6442333E1,1.3113985E0,2.083956E0,4.459793E0,5.540314E1,1.0391933E0,1.2286159E0,3.2311773E0],"tree_param":{"num_deleted":"0","num_feature":"7","num_nodes":"23","size_leaf_vector":"1"}},{"base_weights":[-6.2499465E-3,-6.803973E-2,3.417963E-3,1.1295505E-1,-2.3270981E-2,3.5584596E-1,-2.1433118E-1,1.3346425E-1,-6.367816E-2,-2.8022036E-1,6.1481804E-1,-5.1327795E-1,1.3003269E-1,-9.7998716E-2,1.6973151E-1,-3.6174658E-1,3.7959935E-3,7.226966E-2,-1.9673143E-1,3.7939158E-1,2.1696052E-1,-4.1287363E-2,-2.0738666E-1,1.5791662E-1,-7.259559E-2,5.7558358E-2,-2.1360064E-1,-2.1458928E-1,1.0606544E-1,-1.033557E-1,2.8567307E-2,-6.964436E-2,1.5236634E-1,-1.54065E-1,-1.8716002E-2,8.479662E-2,-6.3833594E-2,1.5809862E-2,-7.9265356E-2],"categories":[],"categories_nodes":[],"categories_segments":[],"categories_sizes":[],"default_left":[0,0,0,0,0,0,0,0,0,0,0,0,0,0,0,0,0,0,0,0,0,0,0,0,0,0,0,0,0,0,0,0,0,0,0,0,0,0,0],"id":26,"left_children":[1,-1,3,5,7,9,11,13,15,17,19,21,23,25,-1,27,29,-1,-1,-1,31,-1,-1,-1,-1,-1,33,-1,35,-1,37,-1,-1,-1,-1,-1,-1,-1,-1],"loss_changes":[1.5743725E-1,0E0,2.1128063E-1,1.2014277E0,3.7720984E-1,1.572488E0,7.5170004E-1,1.2817919E0,9.458845E-1,7.737506E-1,1.3683383E0,1.5654582E-1,7.009305E-1,3.3700797E-1,0E0,1.5113467E0,3.487904E-1,0E0,0E0,0E0,7.9054356E-1,0E0,0E0,0E0,0E0,0E0,2.7587783E-1,0E0,3.1952292E-1,0E0,2.795812E-1,0E0,0E0,0E0,0E0,0E0,0E0,0E0,0E0],"parents":[2147483647,0,0,2,2,3,3,4,4,5,5,6,6,7,7,8,8,9,9,10,10,11,11,12,12,13,13,15,15,16,16,20,20,26,26,28,28,30,30],"right_children":[2,-1,4,6,8,10,12,14,16,18,20,22,24,26,-1,28,30,-1,-1,-1,32,-1,-1,-1,-1,-1,34,-1,36,-1,38,-1,-1,-1,-1,-1,-1,-1,-1],"split_conditions":[7.1417E0,-6.803973E-2,2.1E1,1.6E1,7.8875E0,7.925E0,3.13875E1,7.775E0,8.1125E0,7.775E0,8.1125E0,3E0,4.24E1,7.25E0,1.6973151E-1,2.85E1,2.4E1,7.226966E-2,-1.9673143E-1,3.7939158E-1,1.05E1,-4.1287363E-2,-2.0738666E-1,1.5791662E-1,-7.259559E-2,5.7558358E-2,7.65E0,-2.1458928E-1,8.0292E0,-1.033557E-1,1.5155E2,-6.964436E-2,1.5236634E-1,-1.54065E-1,-1.8716002E-2,8.479662E-2,-6.3833594E-2,1.5809862E-2,-7.9265356E-2],"split_indices":[5,0,2,5,5,5,5,5,5,5,5,3,5,5,0,2,2,0,0,0,5,0,0,0,0,0,5,0,5,0,5,0,0,0,0,0,0,0,0],"split_type":[0,0,0,0,0,0,0,0,0,0,0,0,0,0,0,0,0,0,0,0,0,0,0,0,0,0,0,0,0,0,0,0,0,0,0,0,0,0,0],"sum_hessian":[7.247268E1,2.1003141E0,7.037236E1,1.3153859E1,5.7218506E1,7.500331E0,5.653528E0,1.1255728E1,4.5962776E1,2.1464198E0,5.3539114E0,2.7637608E0,2.8897672E0,7.8344016E0,3.4213266E0,7.6790705E0,3.8283707E1,1.049151E0,1.0972689E0,1.2058216E0,4.1480894E0,1.4586726E0,1.3050883E0,1.1982116E0,1.6915556E0,2.0456E0,5.7888017E0,4.0723476E0,3.6067228E0,1.684838E0,3.659887E1,1.7101496E0,2.43794E0,1.1370863E0,4.6517153E0,2.3942056E0,1.2125173E0,3.456955E1,2.02932E0],"tree_param":{"num_deleted":"0","num_feature":"7","num_nodes":"39","size_leaf_vector":"1"}},{"base_weights":[-9.204672E-3,-4.5487273E-2,6.854484E-2,7.478654E-2,-5.743909E-2,2.760356E-1,-1.0102091E-2,-3.2081676E-1,-2.6418036E-2,9.699839E-2,4.3161246E-1,5.8084805E-2,-2.42437E-1,-1.5071034E-2,-1.4416622E-1,2.2909439E-1,-5.5205584E-2,1.1485637E-1,-5.3975035E-2,1.6521779E-1,2.9457806E-2,-3.200489E-2,1.5126947E-1,3.64599E-2,-1.2060818E-1,2.3324199E-3,1.0486204E-1,-3.2436892E-1,-2.7337313E-2,4.1803353E-2,-1.2027058E-1,-2.0879172E-1,9.959669E-2,7.447851E-2,-2.329115E-2,9.8970585E-2,-2.2420919E-2],"categories":[],"categories_nodes":[],"categories_segments":[],"categories_sizes":[],"default_left":[0,0,0,0,0,0,0,0,0,0,0,0,0,0,0,0,0,0,0,0,0,0,0,0,0,0,0,0,0,0,0,0,0,0,0,0,0],"id":27,"left_children":[1,3,5,-1,7,9,11,13,15,17,19,21,23,-1,-1,25,27,-1,-1,-1,-1,29,-1,-1,-1,-1,-1,31,33,35,-1,-1,-1,-1,-1,-1,-1],"loss_changes":[2.089889E-1,1.9174194E-1,3.8822088E-1,0E0,3.9358518E-1,1.3994437E-1,3.0070037E-1,1.9609886E-1,3.444919E-1,4.112149E-1,7.311159E-2,6.107485E-1,2.9852986E-1,0E0,0E0,1.2423344E-1,3.0132115E-1,0E0,0E0,0E0,0E0,3.7749007E-1,0E0,0E0,0E0,0E0,0E0,1.1549046E0,5.53879E-1,4.2572314E-1,0E0,0E0,0E0,0E0,0E0,0E0,0E0],"parents":[2147483647,0,0,1,1,2,2,4,4,5,5,6,6,7,7,8,8,9,9,10,10,11,11,12,12,15,15,16,16,21,21,27,27,28,28,29,29],"right_children":[2,4,6,-1,8,10,12,14,16,18,20,22,24,-1,-1,26,28,-1,-1,-1,-1,30,-1,-1,-1,-1,-1,32,34,36,-1,-1,-1,-1,-1,-1,-1],"split_conditions":[1E0,7.05E0,3E0,7.478654E-2,7.75E0,2.8E1,1.78E1,2.45E1,7.8E0,2.4E1,4.5E1,1.55E1,7E0,-1.5071034E-2,-1.4416622E-1,7.775E0,7.925E0,1.1485637E-1,-5.3975035E-2,1.6521779E-1,2.9457806E-2,1.35E1,1.5126947E-1,3.64599E-2,-1.2060818E-1,2.3324199E-3,1.0486204E-1,2.85E1,8.1375E0,1.9E1,-1.2027058E-1,-2.0879172E-1,9.959669E-2,7.447851E-2,-2.329115E-2,9.8970585E-2,-2.2420919E-2],"split_indices":[1,5,0,0,5,2,5,2,5,2,2,5,2,0,0,5,5,0,0,0,0,5,0,0,0,0,0,2,5,2,0,0,0,0,0,0,0],"split_type":[0,0,0,0,0,0,0,0,0,0,0,0,0,0,0,0,0,0,0,0,0,0,0,0,0,0,0,0,0,0,0,0,0,0,0,0,0],"sum_hessian":[7.197919E1,4.935986E1,2.261933E1,1.1495649E0,4.8210293E1,5.5272417E0,1.7092089E1,4.0955963E0,4.4114697E1,3.3246841E0,2.2025576E0,1.3793804E1,3.298284E0,2.0082705E0,2.0873258E0,3.7623892E0,4.035231E1,1.4476858E0,1.8769984E0,1.1426125E0,1.059945E0,1.2248706E1,1.545098E0,1.0780635E0,2.2202208E0,1.7011206E0,2.0612686E0,2.7877455E0,3.7564564E1,1.0945442E1,1.3032638E0,1.7414508E0,1.0462946E0,5.190353E0,3.237421E1,2.625102E0,8.32034E0],"tree_param":{"num_deleted":"0","num_feature":"7","num_nodes":"37","size_leaf_vector":"1"}},{"base_weights":[-3.7253427E-3,-3.558516E-2,8.457828E-2,1.7927693E-3,-2.3933822E-1,3.936544E-1,-1.2687332E-2,-3.474067E-2,2.2128625E-1,1.9142239E-1,-1.3103649E-2,-3.0627963E-1,9.405285E-2,1.0275483E-3,-2.2520593E-1,4.1791362E-1,-1.4838022E-1,2.7085645E-2,-1.6804816E-1,-1.0602096E-1,2.611134E-1,-1.8747216E-2,1.281894E-1,1.5114006E-1,1.9886178E-1,1.0237944E-1,-1.3684477E-1,1.8854564E-1,-1.0301169E-1,1.5017391E-2,-6.537895E-2,-7.078403E-2,1.2847956E-1,1.14825465E-1,-8.142258E-2,4.1623197E-2,-1.1271316E-1],"categories":[],"categories_nodes":[],"categories_segments":[],"categories_sizes":[],"default_left":[0,0,0,0,0,0,0,0,0,0,0,0,0,0,0,0,0,0,0,0,0,0,0,0,0,0,0,0,0,0,0,0,0,0,0,0,0],"id":28,"left_children":[1,3,5,7,-1,9,11,13,15,-1,-1,17,19,21,-1,23,-1,-1,-1,25,27,29,-1,31,-1,33,-1,-1,35,-1,-1,-1,-1,-1,-1,-1,-1],"loss_changes":[2.0595028E-1,1.5317105E0,5.8886385E-1,4.2627278E-1,0E0,5.2815306E-1,5.221197E-1,1.1689059E0,1.2742925E0,0E0,0E0,4.9680105E-1,4.3912274E-1,3.826463E-1,0E0,3.2406163E-1,0E0,0E0,0E0,5.0730675E-1,1.0007247E0,6.0612977E-1,0E0,5.733659E-1,0E0,6.0418326E-1,0E0,0E0,3.404374E-1,0E0,0E0,0E0,0E0,0E0,0E0,0E0,0E0],"parents":[2147483647,0,0,1,1,2,2,3,3,5,5,6,6,7,7,8,8,11,11,12,12,13,13,15,15,19,19,20,20,21,21,23,23,25,25,28,28],"right_children":[2,4,6,8,-1,10,12,14,16,-1,-1,18,20,22,-1,24,-1,-1,-1,26,28,30,-1,32,-1,34,-1,-1,36,-1,-1,-1,-1,-1,-1,-1,-1],"split_conditions":[2.97E1,2.77208E1,3.3E1,2.2025E1,-2.3933822E-1,2.85E1,5.25542E1,2.1E1,5.2E1,1.9142239E-1,-1.3103649E-2,3.70042E1,3E1,5.3E1,-2.2520593E-1,2.62875E1,-1.4838022E-1,2.7085645E-2,-1.6804816E-1,2.8E1,4.4E1,3E1,1.281894E-1,1E0,1.9886178E-1,1.3365E2,-1.3684477E-1,1.8854564E-1,9E1,1.5017391E-2,-6.537895E-2,-7.078403E-2,1.2847956E-1,1.14825465E-1,-8.142258E-2,4.1623197E-2,-1.1271316E-1],"split_indices":[5,5,5,5,0,2,5,5,2,0,0,5,2,2,0,5,0,0,0,2,2,2,0,3,0,5,0,0,5,0,0,0,0,0,0,0,0],"split_type":[0,0,0,0,0,0,0,0,0,0,0,0,0,0,0,0,0,0,0,0,0,0,0,0,0,0,0,0,0,0,0,0,0,0,0,0,0],"sum_hessian":[7.1135155E1,5.271329E1,1.8421864E1,5.1200138E1,1.5131536E0,3.6802156E0,1.4741649E1,4.4615814E1,6.584325E0,2.0663471E0,1.6138685E0,3.4321144E0,1.1309534E1,4.3443943E1,1.1718687E0,5.492084E0,1.0922405E0,1.5911292E0,1.8409852E0,5.3125415E0,5.9969926E0,4.2431557E1,1.0123873E0,3.4030166E0,2.0890677E0,3.7738793E0,1.5386622E0,2.6237903E0,3.3732023E0,3.2093822E1,1.0337733E1,1.4818156E0,1.9212009E0,2.1426978E0,1.6311816E0,2.0484283E0,1.3247741E0],"tree_param":{"num_deleted":"0","num_feature":"7","num_nodes":"37","size_leaf_vector":"1"}},{"base_weights":[-6.7436835E-3,-4.1961666E-2,6.892221E-2,7.252102E-2,-5.509283E-2,2.69576E-1,-6.1243363E-3,-1.1472681E-1,-2.1345515E-2,1.0290622E-1,4.1333985E-1,6.566965E-2,-4.54937E-2,1.5125952E-2,-3.103082E-1,1.0377907E-1,-3.8500912E-2,1.6039166E-1,2.5795024E-2,-1.8849766E-1,7.752278E-2,-1.0124093E-2,1.0634589E-1,-1.5524414E-1,-8.126111E-2,-4.172504E-1,1.3140596E-1,1.9152138E-1,-9.804745E-2,4.4788993E-3,-1.07687525E-1,4.058882E-2,-9.006071E-2,-1.8913746E-1,4.6085957E-2,-6.302088E-2,1.0772871E-1,1.420689E-1,-1.0640153E-2],"categories":[],"categories_nodes":[],"categories_segments":[],"categories_sizes":[],"default_left":[0,0,0,0,0,0,0,0,0,0,0,0,0,0,0,0,0,0,0,0,0,0,0,0,0,0,0,0,0,0,0,0,0,0,0,0,0,0,0],"id":29,"left_children":[1,3,5,-1,7,9,11,-1,13,15,17,-1,19,21,23,-1,-1,-1,-1,25,27,29,-1,-1,31,33,35,37,-1,-1,-1,-1,-1,-1,-1,-1,-1,-1,-1],"loss_changes":[1.9342119E-1,1.9738944E-1,3.49306E-1,0E0,5.225092E-1,1.08578056E-1,1.6747665E-1,0E0,4.7482327E-1,2.8335425E-1,7.531762E-2,0E0,2.9539385E-1,3.511693E-1,1.9738415E-1,0E0,0E0,0E0,0E0,6.162744E-1,4.9075365E-1,3.4381223E-1,0E0,0E0,2.1048291E-1,6.7048097E-1,3.8327256E-1,5.2103925E-1,0E0,0E0,0E0,0E0,0E0,0E0,0E0,0E0,0E0,0E0,0E0],"parents":[2147483647,0,0,1,1,2,2,4,4,5,5,6,6,8,8,9,9,10,10,12,12,13,13,14,14,19,19,20,20,21,21,24,24,25,25,26,26,27,27],"right_children":[2,4,6,-1,8,10,12,-1,14,16,18,-1,20,22,24,-1,-1,-1,-1,26,28,30,-1,-1,32,34,36,38,-1,-1,-1,-1,-1,-1,-1,-1,-1,-1,-1],"split_conditions":[1E0,9E0,3E0,7.252102E-2,1.9E1,2.8E1,7.7417E0,-1.1472681E-1,1E0,2.4E1,2.79E1,6.566965E-2,2.6E1,8.65E1,1E0,1.0377907E-1,-3.8500912E-2,1.6039166E-1,2.5795024E-2,1E0,2E0,5.79792E1,1.0634589E-1,-1.5524414E-1,3.8E1,9.8417E0,4E0,8.0292E0,-9.804745E-2,4.4788993E-3,-1.07687525E-1,4.058882E-2,-9.006071E-2,-1.8913746E-1,4.6085957E-2,-6.302088E-2,1.0772871E-1,1.420689E-1,-1.0640153E-2],"split_indices":[1,2,0,0,2,2,5,0,4,2,5,0,2,5,3,0,0,0,0,4,4,5,0,0,2,5,2,5,0,0,0,0,0,0,0,0,0,0,0],"split_type":[0,0,0,0,0,0,0,0,0,0,0,0,0,0,0,0,0,0,0,0,0,0,0,0,0,0,0,0,0,0,0,0,0,0,0,0,0,0,0],"sum_hessian":[7.049846E1,4.84113E1,2.2087152E1,1.3714645E0,4.7039837E1,5.306613E0,1.678054E1,3.4308257E0,4.3609013E1,3.2521253E0,2.0544877E0,1.8196797E0,1.496086E1,3.9563194E1,4.04582E0,1.3438481E0,1.9082773E0,1.037026E0,1.0174617E0,6.672236E0,8.288625E0,3.7726337E1,1.8368543E0,1.4631399E0,2.58268E0,3.7129357E0,2.9593003E0,6.8763146E0,1.4123098E0,3.6091404E1,1.6349329E0,1.4904771E0,1.092203E0,2.6273108E0,1.0856249E0,1.2148007E0,1.7444996E0,2.5819106E0,4.294404E0],"tree_param":{"num_deleted":"0","num_feature":"7","num_nodes":"39","size_leaf_vector":"1"}},{"base_weights":[-4.756596E-3,-1.2982752E-2,8.335389E-2,-2.7396258E-2,1.13268755E-1,-1.197404E-2,-1.1280578E-1,-2.9046929E-2,3.1100222E-1,3.24523E-3,-1.655725E-1,1.689236E-1,-2.5439732E-2,4.930139E-3,-9.262225E-2,-1.16263464E-1,-1.4663473E-2],"categories":[],"categories_nodes":[],"categories_segments":[],"categories_sizes":[],"default_left":[0,0,0,0,0,0,0,0,0,0,0,0,0,0,0,0,0],"id":30,"left_children":[1,3,-1,5,-1,7,-1,9,11,13,15,-1,-1,-1,-1,-1,-1],"loss_changes":[1.6816506E-1,4.0291226E-1,0E0,3.6211815E-1,0E0,3.748037E-1,0E0,2.823299E-1,3.885519E-1,2.2179942E-1,2.9825392E-1,0E0,0E0,0E0,0E0,0E0,0E0],"parents":[2147483647,0,0,1,1,3,3,5,5,7,7,8,8,9,9,10,10],"right_children":[2,4,-1,6,-1,8,-1,10,12,14,16,-1,-1,-1,-1,-1,-1],"split_conditions":[2.62375E2,6.2E1,8.335389E-2,1.356333E2,1.13268755E-1,8.65E1,-1.1280578E-1,3.6E1,4.2E1,6.66E1,4.2E1,1.689236E-1,-2.5439732E-2,4.930139E-3,-9.262225E-2,-1.16263464E-1,-1.4663473E-2],"split_indices":[5,2,0,5,0,5,0,2,2,5,2,0,0,0,0,0,0],"split_type":[0,0,0,0,0,0,0,0,0,0,0,0,0,0,0,0,0],"sum_hessian":[6.9785614E1,6.873879E1,1.0468253E0,6.718896E1,1.549832E0,6.533313E1,1.8558292E0,6.2917316E1,2.415815E0,5.1671722E1,1.1245595E1,1.2176765E0,1.1981386E0,5.04849E1,1.1868198E0,3.0751348E0,8.17046E0],"tree_param":{"num_deleted":"0","num_feature":"7","num_nodes":"17","size_leaf_vector":"1"}},{"base_weights":[-3.3618778E-3,1.3739107E-2,-1.3724484E-1,-2.4774928E-2,1.4824802E-1,-1.3906896E-1,-1.9299293E-2,7.758686E-2,-4.0417917E-2,2.1108285E-1,-1.4709562E-1,7.469668E-2,-6.0006153E-2,-1.0964406E-1,7.235414E-2,3.828497E-2,5.737924E-1,-1.07826255E-1,4.27415E-2,-1.6715005E-2,4.7950078E-2,-6.825259E-2,-3.9785957E-1,-1.2188086E-2,3.7179515E-1,2.4080868E-1,-2.1745797E-1,1.830981E-2,2.7955788E-1,3.9026868E-2,-3.1416275E-2,-1.8864455E-2,-1.798723E-1,3.1136775E-2,-1.2493561E-1,2.592157E-2,1.7341188E-1,-6.547108E-2,1.1655791E-1],"categories":[],"categories_nodes":[],"categories_segments":[],"categories_sizes":[],"default_left":[0,0,0,0,0,0,0,0,0,0,0,0,0,0,0,0,0,0,0,0,0,0,0,0,0,0,0,0,0,0,0,0,0,0,0,0,0,0,0],"id":31,"left_children":[1,3,5,7,9,-1,11,-1,13,15,17,19,-1,21,23,25,27,-1,-1,-1,-1,29,31,33,35,37,-1,-1,-1,-1,-1,-1,-1,-1,-1,-1,-1,-1,-1],"loss_changes":[1.6364148E-1,3.329293E-1,3.02539E-1,2.3329362E-1,2.9625407E-1,0E0,1.3364545E-1,0E0,3.8657603E-1,7.423196E-1,2.4157667E-1,6.802963E-2,0E0,3.3611378E-1,4.8681405E-1,1.6167003E0,6.524544E-1,0E0,0E0,0E0,0E0,2.1495195E-1,2.0669156E-1,7.8517276E-1,1.9881004E-1,6.3571817E-1,0E0,0E0,0E0,0E0,0E0,0E0,0E0,0E0,0E0,0E0,0E0,0E0,0E0],"parents":[2147483647,0,0,1,1,2,2,3,3,4,4,6,6,8,8,9,9,10,10,11,11,13,13,14,14,15,15,16,16,21,21,22,22,23,23,24,24,25,25],"right_children":[2,4,6,8,10,-1,12,-1,14,16,18,20,-1,22,24,26,28,-1,-1,-1,-1,30,32,34,36,38,-1,-1,-1,-1,-1,-1,-1,-1,-1,-1,-1,-1,-1],"split_conditions":[2E0,1E0,7.7375E0,7.225E0,9.35E1,-1.3906896E-1,8.05E0,7.758686E-2,3.1E1,3.05E1,1.465208E2,1E0,-6.0006153E-2,2.85E1,1E0,3E1,4.7E1,-1.07826255E-1,4.27415E-2,-1.6715005E-2,4.7950078E-2,7.8E0,1.2525E1,5.3E1,1.875E1,1.9E1,-2.1745797E-1,1.830981E-2,2.7955788E-1,3.9026868E-2,-3.1416275E-2,-1.8864455E-2,-1.798723E-1,3.1136775E-2,-1.2493561E-1,2.592157E-2,1.7341188E-1,-6.547108E-2,1.1655791E-1],"split_indices":[6,6,5,5,5,0,5,0,2,5,5,1,0,2,1,2,2,0,0,0,0,5,5,2,5,2,0,0,0,0,0,0,0,0,0,0,0,0,0],"split_type":[0,0,0,0,0,0,0,0,0,0,0,0,0,0,0,0,0,0,0,0,0,0,0,0,0,0,0,0,0,0,0,0,0,0,0,0,0,0,0],"sum_hessian":[6.965023E1,6.2557133E1,7.0930967E0,4.926645E1,1.3290687E1,1.1051574E0,5.9879394E0,1.7646246E0,4.7501823E1,1.1194365E1,2.0963213E0,4.325074E0,1.6628654E0,2.9450874E1,1.805095E1,8.330973E0,2.8633924E0,1.070294E0,1.0260273E0,1.8447838E0,2.4802904E0,2.683398E1,2.616895E0,1.4824728E1,3.2262201E0,7.1246753E0,1.2062973E0,1.6586382E0,1.2047541E0,3.7688642E0,2.3065115E1,1.4765664E0,1.1403286E0,1.2097421E1,2.7273073E0,1.9486831E0,1.2775369E0,1.6182938E0,5.5063815E0],"tree_param":{"num_deleted":"0","num_feature":"7","num_nodes":"39","size_leaf_vector":"1"}},{"base_weights":[-4.4607464E-3,-9.798295E-2,2.7267074E-2,-1.7006207E-1,-2.9473552E-3,3.7027323E-1,-3.7262551E-3,1.12451255E-1,-1.5062106E-1,1.486721E-1,1.9630393E-2,-2.173089E-2,1.01488926E-1,1.6045855E-1,-6.186976E-2,-2.0982821E-1,2.2406401E-2,3.2587895E-1,4.1948045E-3,1.08867E-1,-4.0638098E-1,2.4638629E-1,-2.7876219E-2,3.1347718E-2,1.1663795E-1,-4.786117E-2,3.4350622E-2,-6.4684235E-2,-2.0956667E-1,2.567609E-2,1.6868296E-1,-1.9474646E-1,8.926958E-3],"categories":[],"categories_nodes":[],"categories_segments":[],"categories_sizes":[],"default_left":[0,0,0,0,0,0,0,0,0,0,0,0,0,0,0,0,0,0,0,0,0,0,0,0,0,0,0,0,0,0,0,0,0],"id":32,"left_children":[1,3,5,-1,7,9,11,13,-1,-1,-1,15,-1,17,-1,19,21,23,25,-1,27,29,31,-1,-1,-1,-1,-1,-1,-1,-1,-1,-1],"loss_changes":[2.1104911E-1,8.007432E-1,5.671421E-1,0E0,9.7673595E-1,1.364078E-1,3.140101E-1,2.441315E-1,0E0,0E0,0E0,4.0525934E-1,0E0,3.230584E-1,0E0,1.1905608E0,4.5715225E-1,4.410976E-2,1.5312776E-1,0E0,2.6018524E-1,3.2937223E-1,1.2205998E0,0E0,0E0,0E0,0E0,0E0,0E0,0E0,0E0,0E0,0E0],"parents":[2147483647,0,0,1,1,2,2,4,4,5,5,6,6,7,7,11,11,13,13,15,15,16,16,17,17,18,18,20,20,21,21,22,22],"right_children":[2,4,6,-1,8,10,12,14,-1,-1,-1,16,-1,18,-1,20,22,24,26,-1,28,30,32,-1,-1,-1,-1,-1,-1,-1,-1,-1,-1],"split_conditions":[7.925E0,2E1,8.05E0,-1.7006207E-1,3E1,3.2E1,6.2E1,7.8875E0,-1.5062106E-1,1.486721E-1,1.9630393E-2,1.05E1,1.01488926E-1,1E0,-6.186976E-2,2E1,1.4E1,2.3E1,7.7333E0,1.08867E-1,3.25E1,3E0,1.52458E1,3.1347718E-2,1.1663795E-1,-4.786117E-2,3.4350622E-2,-6.4684235E-2,-2.0956667E-1,2.567609E-2,1.6868296E-1,-1.9474646E-1,8.926958E-3],"split_indices":[5,2,5,0,2,2,2,5,0,0,0,5,0,6,0,2,5,2,5,0,2,0,5,0,0,0,0,0,0,0,0,0,0],"split_type":[0,0,0,0,0,0,0,0,0,0,0,0,0,0,0,0,0,0,0,0,0,0,0,0,0,0,0,0,0,0,0,0,0],"sum_hessian":[6.922563E1,1.700697E1,5.2218662E1,2.0293958E0,1.4977573E1,3.4201925E0,4.879847E1,1.2794216E1,2.1833568E0,1.9804568E0,1.4397357E0,4.7247734E1,1.5507349E0,1.1550689E1,1.2435277E0,8.266192E0,3.898154E1,5.0836782E0,6.4670105E0,1.8958286E0,6.370364E0,6.431759E0,3.254978E1,1.7138265E0,3.3698516E0,2.4234784E0,4.043532E0,4.9054537E0,1.4649105E0,5.104385E0,1.3273739E0,1.8918686E0,3.0657913E1],"tree_param":{"num_deleted":"0","num_feature":"7","num_nodes":"33","size_leaf_vector":"1"}},{"base_weights":[-6.3819024E-3,-7.1228534E-2,4.2870934E-3,-2.9769253E-2,7.663119E-2,3.9418966E-2,-9.269338E-2,-8.22297E-2,1.1664044E-1,-1.1569835E-1,1.349315E-1,-1.8194488E-1,-4.046906E-2,2.7466932E-1,-2.4134298E-4,1.9953811E-1,-4.5686215E-1,3.910705E-1,-1.1497581E-1,-9.033325E-3,-1.00000516E-1,1.4751413E-2,5.6617177E-1,-1.8982483E-1,2.6266265E-1,-5.5115756E-2,1.3375568E-1,-1.1135394E-2,-2.2061993E-1,8.468514E-3,2.984021E-1,-9.499287E-2,6.4393505E-2,-2.3220528E-2,7.724143E-2,7.364358E-2,-1.5145624E-1,5.0776724E-2,2.2736375E-1,-2.869172E-3,-2.0782244E-1,1.2650217E-1,3.7724483E-3],"categories":[],"categories_nodes":[],"categories_segments":[],"categories_sizes":[],"default_left":[0,0,0,0,0,0,0,0,0,0,0,0,0,0,0,0,0,0,0,0,0,0,0,0,0,0,0,0,0,0,0,0,0,0,0,0,0,0,0,0,0,0,0],"id":33,"left_children":[1,-1,3,5,7,9,11,-1,13,15,17,-1,19,21,23,25,27,29,31,33,-1,35,37,39,41,-1,-1,-1,-1,-1,-1,-1,-1,-1,-1,-1,-1,-1,-1,-1,-1,-1,-1],"loss_changes":[1.723739E-1,0E0,1.6841027E-1,2.0638612E-1,3.3875063E-1,3.5460672E-1,6.378277E-1,0E0,3.754849E-1,1.0868397E0,9.809867E-1,0E0,2.1315125E-1,6.4645046E-1,6.8199646E-1,6.018648E-1,5.280675E-1,1.6032577E0,6.1133844E-1,4.2499506E-1,0E0,7.9475164E-1,1.7966127E-1,7.1403754E-1,2.226938E-1,0E0,0E0,0E0,0E0,0E0,0E0,0E0,0E0,0E0,0E0,0E0,0E0,0E0,0E0,0E0,0E0,0E0,0E0],"parents":[2147483647,0,0,2,2,3,3,4,4,5,5,6,6,8,8,9,9,10,10,12,12,13,13,14,14,15,15,16,16,17,17,18,18,19,19,21,21,22,22,23,23,24,24],"right_children":[2,-1,4,6,8,10,12,-1,14,16,18,-1,20,22,24,26,28,30,32,34,-1,36,38,40,42,-1,-1,-1,-1,-1,-1,-1,-1,-1,-1,-1,-1,-1,-1,-1,-1,-1,-1],"split_conditions":[7.1417E0,-7.1228534E-2,1E0,1.4E1,4E0,2.7E1,1.57417E1,-8.22297E-2,2.45E1,2.2E1,3E1,-1.8194488E-1,6.1E1,1.45E1,2.85E1,1.9E1,7.7958E0,8.1125E0,3.9E1,4.8E1,-1.00000516E-1,1.05167E1,2.2E1,2E0,1.78E1,-5.5115756E-2,1.3375568E-1,-1.1135394E-2,-2.2061993E-1,8.468514E-3,2.984021E-1,-9.499287E-2,6.4393505E-2,-2.3220528E-2,7.724143E-2,7.364358E-2,-1.5145624E-1,5.0776724E-2,2.2736375E-1,-2.869172E-3,-2.0782244E-1,1.2650217E-1,3.7724483E-3],"split_indices":[5,0,1,5,2,2,5,0,2,2,2,0,2,5,2,2,5,5,2,2,0,5,2,4,5,0,0,0,0,0,0,0,0,0,0,0,0,0,0,0,0,0,0],"split_type":[0,0,0,0,0,0,0,0,0,0,0,0,0,0,0,0,0,0,0,0,0,0,0,0,0,0,0,0,0,0,0,0,0,0,0,0,0,0,0,0,0,0,0],"sum_hessian":[6.8514656E1,2.0860188E0,6.6428635E1,4.556649E1,2.086215E1,2.1880898E1,2.368559E1,1.5370585E0,1.932509E1,8.258052E0,1.3622846E1,1.2061634E0,2.2479427E1,7.6423507E0,1.1682741E1,4.5078807E0,3.7501712E0,6.448591E0,7.174255E0,2.1231337E1,1.248091E0,4.5954375E0,3.046913E0,6.9494042E0,4.7333364E0,1.8630924E0,2.6447883E0,1.9479516E0,1.8022196E0,4.681301E0,1.7672899E0,4.4754677E0,2.6987872E0,1.7461401E1,3.7699356E0,3.5476818E0,1.0477557E0,1.6055745E0,1.4413385E0,5.8659E0,1.0835038E0,2.474129E0,2.2592077E0],"tree_param":{"num_deleted":"0","num_feature":"7","num_nodes":"43","size_leaf_vector":"1"}},{"base_weights":[-8.055746E-3,1.6906148E-1,-1.925858E-2,-3.400764E-2,1.3416667E-1,-9.964216E-2,-7.5515164E-3,2.448342E-2,-9.490235E-2,-1.7687121E-2,2.045437E-1,-1.23184055E-1,-2.5206566E-2,-1.5754619E-1,5.016487E-2,3.37354E-1,-1.0145384E-1,1.6153339E-1,-1.4323655E-1,2.9607775E-2,-8.981153E-2,1.4475875E-1,-5.5847233E-3,6.388496E-2,1.5372902E-1,-1.628403E-1,9.109097E-2,-1.18533574E-1,1.1925832E-2],"categories":[],"categories_nodes":[],"categories_segments":[],"categories_sizes":[],"default_left":[0,0,0,0,0,0,0,0,0,0,0,0,0,0,0,0,0,0,0,0,0,0,0,0,0,0,0,0,0],"id":34,"left_children":[1,3,5,-1,-1,-1,7,9,11,13,15,-1,17,19,21,23,25,-1,27,-1,-1,-1,-1,-1,-1,-1,-1,-1,-1],"loss_changes":[1.4039777E-1,3.817317E-1,2.388882E-1,0E0,0E0,0E0,1.8294932E-1,3.682704E-1,3.7527776E-1,3.8588655E-1,4.0780562E-1,0E0,1.1030957E0,5.111708E-1,8.291039E-1,3.5530984E-2,7.9968405E-1,0E0,6.398356E-1,0E0,0E0,0E0,0E0,0E0,0E0,0E0,0E0,0E0,0E0],"parents":[2147483647,0,0,1,1,2,2,6,6,7,7,8,8,9,9,10,10,12,12,13,13,14,14,15,15,16,16,18,18],"right_children":[2,4,6,-1,-1,-1,8,10,12,14,16,-1,18,20,22,24,26,-1,28,-1,-1,-1,-1,-1,-1,-1,-1,-1,-1],"split_conditions":[6E0,3E0,1.2E1,-3.400764E-2,1.3416667E-1,-9.964216E-2,1E0,2.9125E1,2E1,2.6E1,3.65E1,-1.23184055E-1,2.45E1,2E1,2.8E1,3.2E1,5.2E1,1.6153339E-1,2.2025E1,2.9607775E-2,-8.981153E-2,1.4475875E-1,-5.5847233E-3,6.388496E-2,1.5372902E-1,-1.628403E-1,9.109097E-2,-1.18533574E-1,1.1925832E-2],"split_indices":[2,2,2,0,0,0,3,5,2,2,2,0,2,2,2,2,2,0,5,0,0,0,0,0,0,0,0,0,0],"split_type":[0,0,0,0,0,0,0,0,0,0,0,0,0,0,0,0,0,0,0,0,0,0,0,0,0,0,0,0,0],"sum_hessian":[6.811644E1,3.2138824E0,6.490256E1,1.8887151E0,1.3251673E0,1.3536656E0,6.3548893E1,4.702333E1,1.6525564E1,3.883083E1,8.192501E0,2.103866E0,1.4421699E1,1.2252861E1,2.6577967E1,5.6414866E0,2.5510142E0,1.8803195E0,1.2541379E1,4.473905E0,7.7789564E0,2.8221388E0,2.3755829E1,4.593676E0,1.0478102E0,1.0581769E0,1.4928373E0,4.789573E0,7.7518063E0],"tree_param":{"num_deleted":"0","num_feature":"7","num_nodes":"29","size_leaf_vector":"1"}},{"base_weights":[-3.7470956E-3,1.4467629E-2,-1.0799879E-1,-2.8149713E-2,1.2332953E-1,-1.213627E-1,2.624445E-3,-1.0142984E-2,-8.947436E-2,2.3152183E-1,-1.1325303E-1,-1.7036386E-1,1.6858302E-1,-5.5038843E-2,1.8821855E-1,8.304062E-2,6.1283666E-1,-1.4018896E-1,7.5891696E-2,8.546571E-2,-4.043709E-1,1.2904285E-1,-9.5325634E-2,-1.759464E-2,-3.8321215E-1,4.3454808E-1,-1.0839938E-1,-6.109154E-2,1.917608E-1,2.2483647E-1,4.7395516E-2,-1.182731E-1,9.877419E-2,-4.6138535E-3,-1.6776368E-1,-2.053946E-2,7.373835E-2,-2.9550022E-2,-1.380436E-1,1.5752059E-1,2.4123264E-2,7.914897E-2,-1.0668734E-1,-9.258921E-2,1.7716348E-2,5.732402E-2,-1.0642805E-1],"categories":[],"categories_nodes":[],"categories_segments":[],"categories_sizes":[],"default_left":[0,0,0,0,0,0,0,0,0,0,0,0,0,0,0,0,0,0,0,0,0,0,0,0,0,0,0,0,0,0,0,0,0,0,0,0,0,0,0,0,0,0,0,0,0,0,0],"id":35,"left_children":[1,3,5,7,9,-1,11,13,-1,15,17,19,21,23,25,27,29,-1,31,-1,33,-1,-1,35,37,39,41,43,-1,-1,-1,45,-1,-1,-1,-1,-1,-1,-1,-1,-1,-1,-1,-1,-1,-1,-1],"loss_changes":[1.3190849E-1,2.7865732E-1,3.3985043E-1,2.082554E-1,4.581227E-1,0E0,2.731811E-1,3.8227028E-1,0E0,6.23262E-1,4.3501526E-1,6.12345E-1,7.5343645E-1,4.2122585E-1,6.2679327E-1,8.187486E-1,7.9226375E-2,0E0,2.72567E-1,0E0,2.0194721E-1,0E0,0E0,4.497247E-1,3.1748533E-2,1.0312265E-1,4.9871585E-1,2.751135E-1,0E0,0E0,0E0,3.183089E-1,0E0,0E0,0E0,0E0,0E0,0E0,0E0,0E0,0E0,0E0,0E0,0E0,0E0,0E0,0E0],"parents":[2147483647,0,0,1,1,2,2,3,3,4,4,6,6,7,7,9,9,10,10,11,11,12,12,13,13,14,14,15,15,16,16,18,18,20,20,23,23,24,24,25,25,26,26,27,27,31,31],"right_children":[2,4,6,8,10,-1,12,14,-1,16,18,20,22,24,26,28,30,-1,32,-1,34,-1,-1,36,38,40,42,44,-1,-1,-1,46,-1,-1,-1,-1,-1,-1,-1,-1,-1,-1,-1,-1,-1,-1,-1],"split_conditions":[4.5E1,2.9E1,4.8E1,1.345E2,1E0,-1.213627E-1,3E1,2.97E1,-8.947436E-2,1E0,1.875E1,1.05167E1,1E0,2.345E1,1E0,4.2E1,2.775E1,-1.4018896E-1,1E0,8.546571E-2,5.2E1,1.2904285E-1,-9.5325634E-2,1.57417E1,2.6E1,2E0,9E0,3.1E1,1.917608E-1,2.2483647E-1,4.7395516E-2,3.25E1,9.877419E-2,-4.6138535E-3,-1.6776368E-1,-2.053946E-2,7.373835E-2,-2.9550022E-2,-1.380436E-1,1.5752059E-1,2.4123264E-2,7.914897E-2,-1.0668734E-1,-9.258921E-2,1.7716348E-2,5.732402E-2,-1.0642805E-1],"split_indices":[2,2,2,5,3,0,5,5,0,6,5,5,4,5,3,2,5,0,4,0,2,0,0,5,2,0,2,2,0,0,0,2,0,0,0,0,0,0,0,0,0,0,0,0,0,0,0],"split_type":[0,0,0,0,0,0,0,0,0,0,0,0,0,0,0,0,0,0,0,0,0,0,0,0,0,0,0,0,0,0,0,0,0,0,0,0,0,0,0,0,0,0,0,0,0,0,0],"sum_hessian":[6.7642334E1,5.831486E1,9.327475E0,4.244132E1,1.5873543E1,1.8123195E0,7.515155E0,4.0761414E1,1.6799029E0,1.0907013E1,4.9665294E0,3.6666484E0,3.8485065E0,3.382762E1,6.9337916E0,8.726682E0,2.180332E0,1.2173331E0,3.749196E0,1.171034E0,2.4956145E0,2.57771E0,1.2707965E0,3.1308924E1,2.518699E0,3.5339642E0,3.3998277E0,7.6375318E0,1.0891495E0,1.17863E0,1.0017018E0,2.4243863E0,1.3248099E0,1.0235596E0,1.472055E0,2.6861107E1,4.447816E0,1.0209032E0,1.4977958E0,2.4301312E0,1.103833E0,1.3300703E0,2.0697575E0,1.9830403E0,5.6544914E0,1.1335605E0,1.2908256E0],"tree_param":{"num_deleted":"0","num_feature":"7","num_nodes":"47","size_leaf_vector":"1"}},{"base_weights":[-2.439073E-3,-3.378959E-2,6.616821E-2,2.6791248E-2,-9.4518326E-2,2.5138727E-1,-1.6959956E-3,1.0526153E-1,-1.3564621E-1,9.067855E-3,-2.531795E-1,1.1418314E-1,1.0837328E-1,7.24459E-2,-4.6051532E-2,1.081897E-2,2.383515E-1,-1.6886981E-1,1.5411911E-3,2.06866E-1,-1.1822972E-1,4.0592093E-2,-3.443395E-1,9.861512E-2,-2.734279E-2,-1.6482551E-1,9.942713E-2,-5.4261945E-2,8.417837E-2,-1.6658638E-1,2.2650136E-1,3.9481327E-1,-9.497077E-2,-1.11698925E-1,2.108677E-3,-4.4633642E-1,1.1515696E-2,-3.2756954E-1,1.0268301E-2,3.339077E-1,-1.7633253E-1,7.544721E-2,-3.5526115E-2,-8.376757E-3,-8.698861E-2,1.3867563E-1,-4.359955E-2,1.0158578E-2,1.8449794E-1,5.8328092E-2,-7.3493734E-2,-1.8617772E-1,-2.613105E-2,3.4040183E-2,-1.697661E-1,4.6705347E-2,-5.9034154E-2,1.4250055E-1,-8.76284E-3,1.6879754E-2,-8.320646E-2],"categories":[],"categories_nodes":[],"categories_segments":[],"categories_sizes":[],"default_left":[0,0,0,0,0,0,0,0,0,0,0,0,0,0,0,0,0,0,0,0,0,0,0,0,0,0,0,0,0,0,0,0,0,0,0,0,0,0,0,0,0,0,0,0,0,0,0,0,0,0,0,0,0,0,0,0,0,0,0,0,0],"id":36,"left_children":[1,3,5,7,9,11,13,15,17,19,21,23,-1,-1,25,27,-1,-1,29,31,33,-1,35,-1,-1,37,39,41,-1,43,45,47,-1,-1,49,51,-1,53,55,57,59,-1,-1,-1,-1,-1,-1,-1,-1,-1,-1,-1,-1,-1,-1,-1,-1,-1,-1,-1,-1],"loss_changes":[1.490003E-1,1.7726919E-1,2.7368057E-1,3.2728168E-1,3.9574867E-1,4.6717346E-2,1.9344497E-1,1.1058444E0,4.953038E-1,4.1345492E-1,3.826977E-1,2.0867628E-1,0E0,0E0,2.7791408E-1,2.9738975E-1,0E0,0E0,3.1695384E-1,7.558938E-1,3.0766732E-1,0E0,3.2821685E-1,0E0,0E0,2.5152302E-1,5.390896E-1,3.0020756E-1,0E0,7.404041E-2,3.8112247E-1,3.895604E-1,0E0,0E0,4.1851994E-1,3.447789E-1,0E0,5.4180825E-1,1.8613867E-1,2.3721957E-1,1.1117835E-1,0E0,0E0,0E0,0E0,0E0,0E0,0E0,0E0,0E0,0E0,0E0,0E0,0E0,0E0,0E0,0E0,0E0,0E0,0E0,0E0],"parents":[2147483647,0,0,1,1,2,2,3,3,4,4,5,5,6,6,7,7,8,8,9,9,10,10,11,11,14,14,15,15,18,18,19,19,20,20,22,22,25,25,26,26,27,27,29,29,30,30,31,31,34,34,35,35,37,37,38,38,39,39,40,40],"right_children":[2,4,6,8,10,12,14,16,18,20,22,24,-1,-1,26,28,-1,-1,30,32,34,-1,36,-1,-1,38,40,42,-1,44,46,48,-1,-1,50,52,-1,54,56,58,60,-1,-1,-1,-1,-1,-1,-1,-1,-1,-1,-1,-1,-1,-1,-1,-1,-1,-1,-1,-1],"split_conditions":[1E0,1.4E1,3E0,3E1,2E0,2.8E1,7.7417E0,2.85E1,7.7958E0,3.1E1,1E1,2.4E1,1.0837328E-1,7.24459E-2,1.11333E1,1.04625E1,2.383515E-1,-1.6886981E-1,3.9E1,5.3E1,5.25542E1,4.0592093E-2,4.71E1,9.861512E-2,-2.734279E-2,2.6E1,1.78E1,7.225E0,8.417837E-2,8.1125E0,4.5E1,3.1E1,-9.497077E-2,-1.11698925E-1,3.9E1,1E0,1.1515696E-2,1.9E1,8.0292E0,1E0,7E0,7.544721E-2,-3.5526115E-2,-8.376757E-3,-8.698861E-2,1.3867563E-1,-4.359955E-2,1.0158578E-2,1.8449794E-1,5.8328092E-2,-7.3493734E-2,-1.8617772E-1,-2.613105E-2,3.4040183E-2,-1.697661E-1,4.6705347E-2,-5.9034154E-2,1.4250055E-1,-8.76284E-3,1.6879754E-2,-8.320646E-2],"split_indices":[1,5,0,2,0,2,5,2,5,5,2,2,0,0,5,5,0,0,2,2,5,0,5,0,0,2,5,5,0,5,2,2,0,0,2,6,0,2,5,6,2,0,0,0,0,0,0,0,0,0,0,0,0,0,0,0,0,0,0,0,0],"split_type":[0,0,0,0,0,0,0,0,0,0,0,0,0,0,0,0,0,0,0,0,0,0,0,0,0,0,0,0,0,0,0,0,0,0,0,0,0,0,0,0,0,0,0,0,0,0,0,0,0,0,0,0,0,0,0,0,0,0,0,0,0],"sum_hessian":[6.723483E1,4.649579E1,2.0739044E1,2.3555998E1,2.293979E1,4.8360195E0,1.5903024E1,1.6120495E1,7.435501E0,1.4449135E1,8.490657E0,3.0571814E0,1.7788383E0,1.7676157E0,1.4135408E1,1.5071097E1,1.049398E0,1.0529808E0,6.38252E0,5.413087E0,9.036048E0,1.5216652E0,6.9689918E0,1.2011794E0,1.8560019E0,7.708734E0,6.4266744E0,1.278556E1,2.2855377E0,3.801153E0,2.5813675E0,4.1637545E0,1.2493321E0,2.2310536E0,6.8049946E0,5.3713193E0,1.5976722E0,3.543937E0,4.164797E0,3.359338E0,3.067336E0,1.711139E0,1.1074421E1,2.3670776E0,1.4340755E0,1.430945E0,1.1504223E0,2.0147197E0,2.1490347E0,3.9464447E0,2.8585498E0,3.1269546E0,2.2443647E0,1.4269907E0,2.1169462E0,2.592259E0,1.572538E0,2.1973898E0,1.1619483E0,1.0629613E0,2.0043747E0],"tree_param":{"num_deleted":"0","num_feature":"7","num_nodes":"61","size_leaf_vector":"1"}},{"base_weights":[-4.3021532E-4,-1.3012076E-2,1.9659439E-1,1.33997565E-2,-2.3845318E-1,1.1404027E-1,-5.4796945E-2,-1.924913E-2,9.615198E-2,-3.445656E-1,1.0365423E-2,-1.9285992E-3,-8.2776584E-2,3.0811075E-2,9.697229E-2,-7.24154E-2,-1.7086796E-1,-4.785947E-2,1.2903805E-1,1.6167533E-1,-1.7608018E-1,-1.4945367E-1,1.0644082E-1,3.2180147E-3,-8.134393E-2,6.5904014E-2,-5.9870042E-2,1.6595075E-1,1.3712053E-2],"categories":[],"categories_nodes":[],"categories_segments":[],"categories_sizes":[],"default_left":[0,0,0,0,0,0,0,0,0,0,0,0,0,0,0,0,0,0,0,0,0,0,0,0,0,0,0,0,0],"id":37,"left_children":[1,3,5,7,9,-1,-1,11,13,15,-1,17,-1,19,-1,21,-1,23,25,27,-1,-1,-1,-1,-1,-1,-1,-1,-1],"loss_changes":[1.6829841E-1,3.8298544E-1,3.5311234E-1,1.5866637E-1,2.0722246E-1,0E0,0E0,1.882061E-1,2.361736E-1,2.6162618E-1,0E0,2.5146815E-1,0E0,1.2255926E0,0E0,7.923227E-1,0E0,4.0737736E-1,3.6725807E-1,5.343179E-1,0E0,0E0,0E0,0E0,0E0,0E0,0E0,0E0,0E0],"parents":[2147483647,0,0,1,1,2,2,3,3,4,4,7,7,8,8,9,9,11,11,13,13,15,15,17,17,18,18,19,19],"right_children":[2,4,6,8,10,-1,-1,12,14,16,-1,18,-1,20,-1,22,-1,24,26,28,-1,-1,-1,-1,-1,-1,-1,-1,-1],"split_conditions":[5.6E1,4.5E1,6.4E1,2.9E1,6.5E1,1.1404027E-1,-5.4796945E-2,1.345E2,5.25542E1,2.7E1,1.0365423E-2,2.2025E1,-8.2776584E-2,2.655E1,9.697229E-2,1.50458E1,-1.7086796E-1,1.4E1,3E0,3E1,-1.7608018E-1,-1.4945367E-1,1.0644082E-1,3.2180147E-3,-8.134393E-2,6.5904014E-2,-5.9870042E-2,1.6595075E-1,1.3712053E-2],"split_indices":[2,2,2,2,5,0,0,5,5,5,0,5,0,5,0,5,0,5,3,2,0,0,0,0,0,0,0,0,0],"split_type":[0,0,0,0,0,0,0,0,0,0,0,0,0,0,0,0,0,0,0,0,0,0,0,0,0,0,0,0,0],"sum_hessian":[6.585945E1,6.278406E1,3.0753913E0,5.7041817E1,5.742243E0,2.0708613E0,1.0045301E0,4.1454025E1,1.5587793E1,3.946269E0,1.795974E0,3.9777325E1,1.6766988E0,1.2986758E1,2.6010356E0,2.3842118E0,1.5620573E0,2.9919075E1,9.85825E0,1.13257675E1,1.6609906E0,1.1109475E0,1.2732643E0,2.4454617E1,5.4644594E0,7.9866877E0,1.871562E0,1.7266929E0,9.599074E0],"tree_param":{"num_deleted":"0","num_feature":"7","num_nodes":"29","size_leaf_vector":"1"}},{"base_weights":[-3.8878E-3,-1.3686829E-2,7.06789E-2,8.07118E-3,-1.6948704E-1,-5.8504224E-2,1.847976E-2,-3.392067E-1,6.160275E-2,2.4812198E-1,3.031204E-3,-1.3466513E-1,-1.3527955E-1,1.2389273E-1,-9.740148E-3,-9.940728E-2,1.8757857E-2,5.3807285E-2,-1.0646833E-1,-9.773081E-3,4.453329E-2],"categories":[],"categories_nodes":[],"categories_segments":[],"categories_sizes":[],"default_left":[0,0,0,0,0,0,0,0,0,0,0,0,0,0,0,0,0,0,0,0,0],"id":38,"left_children":[1,3,-1,5,7,-1,9,11,-1,13,15,-1,17,-1,-1,-1,19,-1,-1,-1,-1],"loss_changes":[1.5959764E-1,2.2157845E-1,0E0,1.261107E-1,5.7894695E-1,0E0,1.9806795E-1,7.0959985E-2,0E0,1.7623575E-1,2.87682E-1,0E0,3.0484134E-1,0E0,0E0,0E0,3.5145497E-1,0E0,0E0,0E0,0E0],"parents":[2147483647,0,0,1,1,3,3,4,4,6,6,7,7,9,9,10,10,12,12,16,16],"right_children":[2,4,-1,6,8,-1,10,12,-1,14,16,-1,18,-1,-1,-1,20,-1,-1,-1,-1],"split_conditions":[6.2E1,4.5E1,7.06789E-2,7.1417E0,6.5E1,-5.8504224E-2,7.25E0,5.1E1,6.160275E-2,2.45E1,7.7333E0,-1.3466513E-1,5.5E1,1.2389273E-1,-9.740148E-3,-9.940728E-2,1E0,5.3807285E-2,-1.0646833E-1,-9.773081E-3,4.453329E-2],"split_indices":[2,2,0,5,5,0,5,2,0,2,5,0,2,0,0,0,6,0,0,0,0],"split_type":[0,0,0,0,0,0,0,0,0,0,0,0,0,0,0,0,0,0,0,0,0],"sum_hessian":[6.5634964E1,6.3960712E1,1.6742473E0,5.6954964E1,7.0057516E0,1.9120682E0,5.5042892E1,4.887686E0,2.1180656E0,2.5201268E0,5.2522766E1,2.3972106E0,2.490475E0,1.290252E0,1.2298748E0,1.4577377E0,5.106503E1,1.0991116E0,1.3913635E0,3.712024E1,1.3944791E1],"tree_param":{"num_deleted":"0","num_feature":"7","num_nodes":"21","size_leaf_vector":"1"}},{"base_weights":[-3.935837E-3,-3.561045E-2,6.616849E-2,1.8065355E-3,-1.6235037E-1,-7.168172E-2,1.0205283E-1,-4.121191E-2,2.7063617E-1,-1.7214128E-1,-4.2522542E-2,-7.246141E-2,2.0373432E-1,1.71026E-2,